{"learner":{"attributes":{"scikit_learn":"{\"_estimator_type\": \"classifier\"}"},"feature_names":[],"feature_types":[],"gradient_booster":{"model":{"cats":{"enc":[],"feature_segments":[],"sorted_idx":[]},"gbtree_model_param":{"num_parallel_tree":"1","num_trees":"1800"},"iteration_indptr":[0,6,12,18,24,30,36,42,48,54,60,66,72,78,84,90,96,102,108,114,120,126,132,138,144,150,156,162,168,174,180,186,192,198,204,210,216,222,228,234,240,246,252,258,264,270,276,282,288,294,300,306,312,318,324,330,336,342,348,354,360,366,372,378,384,390,396,402,408,414,420,426,432,438,444,450,456,462,468,474,480,486,492,498,504,510,516,522,528,534,540,546,552,558,564,570,576,582,588,594,600,606,612,618,624,630,636,642,648,654,660,666,672,678,684,690,696,702,708,714,720,726,732,738,744,750,756,762,768,774,780,786,792,798,804,810,816,822,828,834,840,846,852,858,864,870,876,882,888,894,900,906,912,918,924,930,936,942,948,954,960,966,972,978,984,990,996,1002,1008,1014,1020,1026,1032,1038,1044,1050,1056,1062,1068,1074,1080,1086,1092,1098,1104,1110,1116,1122,1128,1134,1140,1146,1152,1158,1164,1170,1176,1182,1188,1194,1200,1206,1212,1218,1224,1230,1236,1242,1248,1254,1260,1266,1272,1278,1284,1290,1296,1302,1308,1314,1320,1326,1332,1338,1344,1350,1356,1362,1368,1374,1380,1386,1392,1398,1404,1410,1416,1422,1428,1434,1440,1446,1452,1458,1464,1470,1476,1482,1488,1494,1500,1506,1512,1518,1524,1530,1536,1542,1548,1554,1560,1566,1572,1578,1584,1590,1596,1602,1608,1614,1620,1626,1632,1638,1644,1650,1656,1662,1668,1674,1680,1686,1692,1698,1704,1710,1716,1722,1728,1734,1740,1746,1752,1758,1764,1770,1776,1782,1788,1794,1800],"tree_info":[0,1,2,3,4,5,0,1,2,3,4,5,0,1,2,3,4,5,0,1,2,3,4,5,0,1,2,3,4,5,0,1,2,3,4,5,0,1,2,3,4,5,0,1,2,3,4,5,0,1,2,3,4,5,0,1,2,3,4,5,0,1,2,3,4,5,0,1,2,3,4,5,0,1,2,3,4,5,0,1,2,3,4,5,0,1,2,3,4,5,0,1,2,3,4,5,0,1,2,3,4,5,0,1,2,3,4,5,0,1,2,3,4,5,0,1,2,3,4,5,0,1,2,3,4,5,0,1,2,3,4,5,0,1,2,3,4,5,0,1,2,3,4,5,0,1,2,3,4,5,0,1,2,3,4,5,0,1,2,3,4,5,0,1,2,3,4,5,0,1,2,3,4,5,0,1,2,3,4,5,0,1,2,3,4,5,0,1,2,3,4,5,0,1,2,3,4,5,0,1,2,3,4,5,0,1,2,3,4,5,0,1,2,3,4,5,0,1,2,3,4,5,0,1,2,3,4,5,0,1,2,3,4,5,0,1,2,3,4,5,0,1,2,3,4,5,0,1,2,3,4,5,0,1,2,3,4,5,0,1,2,3,4,5,0,1,2,3,4,5,0,1,2,3,4,5,0,1,2,3,4,5,0,1,2,3,4,5,0,1,2,3,4,5,0,1,2,3,4,5,0,1,2,3,4,5,0,1,2,3,4,5,0,1,2,3,4,5,0,1,2,3,4,5,0,1,2,3,4,5,0,1,2,3,4,5,0,1,2,3,4,5,0,1,2,3,4,5,0,1,2,3,4,5,0,1,2,3,4,5,0,1,2,3,4,5,0,1,2,3,4,5,0,1,2,3,4,5,0,1,2,3,4,5,0,1,2,3,4,5,0,1,2,3,4,5,0,1,2,3,4,5,0,1,2,3,4,5,0,1,2,3,4,5,0,1,2,3,4,5,0,1,2,3,4,5,0,1,2,3,4,5,0,1,2,3,4,5,0,1,2,3,4,5,0,1,2,3,4,5,0,1,2,3,4,5,0,1,2,3,4,5,0,1,2,3,4,5,0,1,2,3,4,5,0,1,2,3,4,5,0,1,2,3,4,5,0,1,2,3,4,5,0,1,2,3,4,5,0,1,2,3,4,5,0,1,2,3,4,5,0,1,2,3,4,5,0,1,2,3,4,5,0,1,2,3,4,5,0,1,2,3,4,5,0,1,2,3,4,5,0,1,2,3,4,5,0,1,2,3,4,5,0,1,2,3,4,5,0,1,2,3,4,5,0,1,2,3,4,5,0,1,2,3,4,5,0,1,2,3,4,5,0,1,2,3,4,5,0,1,2,3,4,5,0,1,2,3,4,5,0,1,2,3,4,5,0,1,2,3,4,5,0,1,2,3,4,5,0,1,2,3,4,5,0,1,2,3,4,5,0,1,2,3,4,5,0,1,2,3,4,5,0,1,2,3,4,5,0,1,2,3,4,5,0,1,2,3,4,5,0,1,2,3,4,5,0,1,2,3,4,5,0,1,2,3,4,5,0,1,2,3,4,5,0,1,2,3,4,5,0,1,2,3,4,5,0,1,2,3,4,5,0,1,2,3,4,5,0,1,2,3,4,5,0,1,2,3,4,5,0,1,2,3,4,5,0,1,2,3,4,5,0,1,2,3,4,5,0,1,2,3,4,5,0,1,2,3,4,5,0,1,2,3,4,5,0,1,2,3,4,5,0,1,2,3,4,5,0,1,2,3,4,5,0,1,2,3,4,5,0,1,2,3,4,5,0,1,2,3,4,5,0,1,2,3,4,5,0,1,2,3,4,5,0,1,2,3,4,5,0,1,2,3,4,5,0,1,2,3,4,5,0,1,2,3,4,5,0,1,2,3,4,5,0,1,2,3,4,5,0,1,2,3,4,5,0,1,2,3,4,5,0,1,2,3,4,5,0,1,2,3,4,5,0,1,2,3,4,5,0,1,2,3,4,5,0,1,2,3,4,5,0,1,2,3,4,5,0,1,2,3,4,5,0,1,2,3,4,5,0,1,2,3,4,5,0,1,2,3,4,5,0,1,2,3,4,5,0,1,2,3,4,5,0,1,2,3,4,5,0,1,2,3,4,5,0,1,2,3,4,5,0,1,2,3,4,5,0,1,2,3,4,5,0,1,2,3,4,5,0,1,2,3,4,5,0,1,2,3,4,5,0,1,2,3,4,5,0,1,2,3,4,5,0,1,2,3,4,5,0,1,2,3,4,5,0,1,2,3,4,5,0,1,2,3,4,5,0,1,2,3,4,5,0,1,2,3,4,5,0,1,2,3,4,5,0,1,2,3,4,5,0,1,2,3,4,5,0,1,2,3,4,5,0,1,2,3,4,5,0,1,2,3,4,5,0,1,2,3,4,5,0,1,2,3,4,5,0,1,2,3,4,5,0,1,2,3,4,5,0,1,2,3,4,5,0,1,2,3,4,5,0,1,2,3,4,5,0,1,2,3,4,5,0,1,2,3,4,5,0,1,2,3,4,5,0,1,2,3,4,5,0,1,2,3,4,5,0,1,2,3,4,5,0,1,2,3,4,5,0,1,2,3,4,5,0,1,2,3,4,5,0,1,2,3,4,5,0,1,2,3,4,5,0,1,2,3,4,5,0,1,2,3,4,5,0,1,2,3,4,5,0,1,2,3,4,5,0,1,2,3,4,5,0,1,2,3,4,5,0,1,2,3,4,5,0,1,2,3,4,5,0,1,2,3,4,5,0,1,2,3,4,5,0,1,2,3,4,5,0,1,2,3,4,5,0,1,2,3,4,5,0,1,2,3,4,5,0,1,2,3,4,5,0,1,2,3,4,5,0,1,2,3,4,5,0,1,2,3,4,5,0,1,2,3,4,5,0,1,2,3,4,5,0,1,2,3,4,5,0,1,2,3,4,5,0,1,2,3,4,5,0,1,2,3,4,5,0,1,2,3,4,5,0,1,2,3,4,5,0,1,2,3,4,5,0,1,2,3,4,5,0,1,2,3,4,5,0,1,2,3,4,5,0,1,2,3,4,5,0,1,2,3,4,5,0,1,2,3,4,5,0,1,2,3,4,5,0,1,2,3,4,5,0,1,2,3,4,5,0,1,2,3,4,5,0,1,2,3,4,5,0,1,2,3,4,5,0,1,2,3,4,5,0,1,2,3,4,5,0,1,2,3,4,5,0,1,2,3,4,5,0,1,2,3,4,5,0,1,2,3,4,5,0,1,2,3,4,5,0,1,2,3,4,5,0,1,2,3,4,5,0,1,2,3,4,5,0,1,2,3,4,5,0,1,2,3,4,5,0,1,2,3,4,5,0,1,2,3,4,5,0,1,2,3,4,5,0,1,2,3,4,5,0,1,2,3,4,5,0,1,2,3,4,5,0,1,2,3,4,5,0,1,2,3,4,5,0,1,2,3,4,5,0,1,2,3,4,5,0,1,2,3,4,5,0,1,2,3,4,5,0,1,2,3,4,5,0,1,2,3,4,5,0,1,2,3,4,5,0,1,2,3,4,5,0,1,2,3,4,5,0,1,2,3,4,5,0,1,2,3,4,5,0,1,2,3,4,5,0,1,2,3,4,5,0,1,2,3,4,5,0,1,2,3,4,5,0,1,2,3,4,5,0,1,2,3,4,5,0,1,2,3,4,5,0,1,2,3,4,5,0,1,2,3,4,5,0,1,2,3,4,5,0,1,2,3,4,5,0,1,2,3,4,5,0,1,2,3,4,5,0,1,2,3,4,5,0,1,2,3,4,5,0,1,2,3,4,5,0,1,2,3,4,5,0,1,2,3,4,5,0,1,2,3,4,5,0,1,2,3,4,5,0,1,2,3,4,5,0,1,2,3,4,5,0,1,2,3,4,5,0,1,2,3,4,5,0,1,2,3,4,5,0,1,2,3,4,5,0,1,2,3,4,5,0,1,2,3,4,5,0,1,2,3,4,5,0,1,2,3,4,5,0,1,2,3,4,5,0,1,2,3,4,5,0,1,2,3,4,5,0,1,2,3,4,5,0,1,2,3,4,5,0,1,2,3,4,5],"trees":[{"base_weights":[-1.6609362E-1,-3.4430122E-1,1.3361977E0,-4.12885E-1,2.1756992E0,-5.0136205E-2,1.8500794E0,-4.7106403E-1,2.1575685E0,2.5621766E-1,1.8393014E-2,-4.4001315E-2,2.2462926E0,-5.2207696E-1,2.1981242E-1,2.3866056E-1,6.713826E-2,-4.289896E-2,2.737343E0,-5.455692E-1,1.0692716E0,2.8434652E-1,6.713826E-2,-5.646917E-1,7.721684E-1,1.8241222E-1,-3.0352235E-2,-5.793239E-1,6.72628E-2,1.6462876E-1,-3.3630934E-2,-5.8424354E-2,1.8393014E-2],"categories":[],"categories_nodes":[],"categories_segments":[],"categories_sizes":[],"default_left":[1,1,0,1,0,0,0,1,0,0,0,0,0,1,0,0,0,0,1,1,0,0,0,1,0,0,0,1,0,0,0,0,0],"id":0,"left_children":[1,3,5,7,9,-1,11,13,15,-1,-1,-1,17,19,-1,-1,-1,-1,21,23,25,-1,-1,27,29,-1,-1,31,-1,-1,-1,-1,-1],"loss_changes":[6.617709E1,3.8961624E1,2.5701504E1,3.3204647E1,4.143173E0,0E0,1.9784714E1,2.9918373E1,8.0251694E-2,0E0,0E0,0E0,2.4589287E1,8.364613E0,0E0,0E0,0E0,0E0,1.422348E0,5.621277E0,4.041522E0,0E0,0E0,4.0723495E0,3.8149595E0,0E0,0E0,8.6434174E-1,0E0,0E0,0E0,0E0,0E0],"parents":[2147483647,0,0,1,1,2,2,3,3,4,4,6,6,7,7,8,8,12,12,13,13,18,18,19,19,20,20,23,23,24,24,27,27],"right_children":[2,4,6,8,10,-1,12,14,16,-1,-1,-1,18,20,-1,-1,-1,-1,22,24,26,-1,-1,28,30,-1,-1,32,-1,-1,-1,-1,-1],"split_conditions":[7.710362E-2,1.0515251E-1,5.7482904E-1,1.0732811E-1,6.644593E-2,-5.0136205E-2,3.2203203E-1,1.2729026E-1,7.102697E-2,2.5621766E-1,1.8393014E-2,-4.4001315E-2,3.2753713E-2,1.0677584E-1,2.1981242E-1,2.3866056E-1,6.713826E-2,-4.289896E-2,2.1005714E-1,9.877193E-2,4.2287834E-2,2.8434652E-1,6.713826E-2,1.0057664E-1,6.730405E-2,1.8241222E-1,-3.0352235E-2,1.4032784E-1,6.72628E-2,1.6462876E-1,-3.3630934E-2,-5.8424354E-2,1.8393014E-2],"split_indices":[1336,4091,586,3120,2415,0,1041,363,4383,0,0,0,4383,2403,0,0,0,0,48,4363,2149,0,0,998,338,0,0,59,0,0,0,0,0],"split_type":[0,0,0,0,0,0,0,0,0,0,0,0,0,0,0,0,0,0,0,0,0,0,0,0,0,0,0,0,0,0,0,0,0],"sum_hessian":[2.4446956E2,2.19234E2,2.5235567E1,2.1423946E2,4.9945393E0,5.5202804E0,1.9715286E1,2.1029639E2,3.9430573E0,3.9430573E0,1.051482E0,2.8915753E0,1.6823711E1,2.0714195E2,3.154446E0,2.8915753E0,1.051482E0,2.628705E0,1.4195006E1,2.0477611E2,2.3658345E0,1.3143524E1,1.051482E0,2.0241028E2,2.3658345E0,1.3143525E0,1.051482E0,2.0057019E2,1.8400934E0,1.051482E0,1.3143525E0,1.995187E2,1.051482E0],"tree_param":{"num_deleted":"0","num_feature":"5000","num_nodes":"33","size_leaf_vector":"1"}},{"base_weights":[-2.6716736E-1,-3.248776E-1,2.0508988E0,-3.998493E-1,1.5260075E0,1.0431475E-2,2.5727978E-1,-4.168908E-1,1.6685724E-1,2.2345579E0,-4.1228008E-2,1.4141E-1,-4.339096E-1,2.703002E-1,1.0431475E-2,-4.509651E-1,1.2111683E-1,-4.6797472E-1,9.0784216E-1,-4.8530915E-1,9.0784216E-1,-2.9958138E-2,1.6685724E-1,-4.9852874E-2,8.1878714E-2,-2.9958138E-2,1.6685724E-1],"categories":[],"categories_nodes":[],"categories_segments":[],"categories_sizes":[],"default_left":[1,1,1,1,1,0,0,0,0,1,0,0,1,0,0,1,0,1,0,1,0,0,0,0,0,0,0],"id":1,"left_children":[1,3,5,7,9,-1,-1,11,-1,13,-1,-1,15,-1,-1,17,-1,19,21,23,25,-1,-1,-1,-1,-1,-1],"loss_changes":[3.2426193E1,3.2873787E1,5.7293243E0,8.600132E0,1.3637188E1,0E0,0E0,7.5692863E0,0E0,6.6395493E0,0E0,0E0,6.7728996E0,0E0,0E0,5.518364E0,0E0,5.64711E0,3.314894E0,4.1362114E0,3.314894E0,0E0,0E0,0E0,0E0,0E0,0E0],"parents":[2147483647,0,0,1,1,2,2,3,3,4,4,7,7,9,9,12,12,15,15,17,17,18,18,19,19,20,20],"right_children":[2,4,6,8,10,-1,-1,12,-1,14,-1,-1,16,-1,-1,18,-1,20,22,24,26,-1,-1,-1,-1,-1,-1],"split_conditions":[3.4419183E-2,5.8555655E-2,5.8679495E-2,1.17513016E-1,7.487125E-2,1.0431475E-2,2.5727978E-1,4.3975496E-1,1.6685724E-1,1.4057139E-1,-4.1228008E-2,1.4141E-1,1.0434201E-1,2.703002E-1,1.0431475E-2,7.718524E-2,1.2111683E-1,1.2697656E-1,1.0334953E-1,9.7650684E-2,8.4580965E-2,-2.9958138E-2,1.6685724E-1,-4.9852874E-2,8.1878714E-2,-2.9958138E-2,1.6685724E-1],"split_indices":[3407,451,2952,2419,3947,0,0,908,0,59,0,0,1581,0,0,1093,0,1998,944,2238,4154,0,0,0,0,0,0],"split_type":[0,0,0,0,0,0,0,0,0,0,0,0,0,0,0,0,0,0,0,0,0,0,0,0,0,0,0],"sum_hessian":[2.3641078E2,2.3150706E2,4.903717E0,2.2324817E2,8.258892E0,1.2904519E0,3.6132653E0,2.2221582E2,1.0323615E0,5.9360785E0,2.3228135E0,1.2904519E0,2.2092537E2,4.645627E0,1.2904519E0,2.1937682E2,1.5485423E0,2.173121E2,2.064723E0,2.1524738E2,2.064723E0,1.0323615E0,1.0323615E0,2.1369884E2,1.5485423E0,1.0323615E0,1.0323615E0],"tree_param":{"num_deleted":"0","num_feature":"5000","num_nodes":"27","size_leaf_vector":"1"}},{"base_weights":[-2.4544014E-1,-3.4553117E-1,1.3261269E0,-3.949187E-1,1.5454051E0,-9.00225E-2,2.4031901E0,-4.25367E-1,1.8892093E-1,-3.5804648E-2,2.3042849E-1,1.177897E-1,-4.9379125E-2,1.9311232E-2,2.6933977E-1,-4.560796E-1,1.5320363E0,-4.7795096E-1,8.679395E-1,1.9982664E-1,1.9311232E-2,-4.9167082E-1,1.177897E-1,1.8527448E-1,-3.5804648E-2,-5.055259E-1,1.177897E-1,-5.4113306E-2,1.0649284E-2],"categories":[],"categories_nodes":[],"categories_segments":[],"categories_sizes":[],"default_left":[1,1,0,1,0,0,0,1,0,0,0,0,0,0,0,1,0,1,0,0,0,1,0,0,0,1,0,0,0],"id":2,"left_children":[1,3,5,7,9,11,13,15,-1,-1,-1,-1,-1,-1,-1,17,19,21,23,-1,-1,25,-1,-1,-1,27,-1,-1,-1],"loss_changes":[3.775025E1,2.1498997E1,2.2183014E1,1.6019112E1,9.342883E0,4.260176E0,4.7496567E0,1.37270355E1,0E0,0E0,0E0,0E0,0E0,0E0,0E0,6.6158867E0,1.8471975E0,5.379532E0,5.293556E0,0E0,0E0,5.4594765E0,0E0,0E0,0E0,4.6174774E0,0E0,0E0,0E0],"parents":[2147483647,0,0,1,1,2,2,3,3,4,4,5,5,6,6,7,7,15,15,16,16,17,17,18,18,21,21,25,25],"right_children":[2,4,6,8,10,12,14,16,-1,-1,-1,-1,-1,-1,-1,18,20,22,24,-1,-1,26,-1,-1,-1,28,-1,-1,-1],"split_conditions":[2.0451865E-1,1.3716899E-1,9.463365E-2,8.4824584E-2,7.2243854E-2,5.0775047E-2,8.601175E-1,2.0525383E-2,1.8892093E-1,-3.5804648E-2,2.3042849E-1,1.177897E-1,-4.9379125E-2,1.9311232E-2,2.6933977E-1,5.5247482E-2,7.478302E-2,4.7777202E-2,1.045724E-1,1.9982664E-1,1.9311232E-2,2.0303203E-1,1.177897E-1,1.8527448E-1,-3.5804648E-2,7.86045E-2,1.177897E-1,-5.4113306E-2,1.0649284E-2],"split_indices":[1041,464,2868,772,3947,3632,1126,3523,0,0,0,0,0,0,0,3513,1903,721,4498,0,0,961,0,0,0,748,0,0,0],"split_type":[0,0,0,0,0,0,0,0,0,0,0,0,0,0,0,0,0,0,0,0,0,0,0,0,0,0,0,0,0],"sum_hessian":[2.3607626E2,2.2267456E2,1.340171E1,2.1777777E2,4.8967786E0,6.1854043E0,7.216305E0,2.1571597E2,2.0618014E0,1.5463511E0,3.3504274E0,1.0309007E0,5.154504E0,1.0309007E0,6.1854043E0,2.1313872E2,2.577252E0,2.1030374E2,2.834977E0,1.5463511E0,1.0309007E0,2.0927284E2,1.0309007E0,1.288626E0,1.5463511E0,2.0824194E2,1.0309007E0,1.9690204E2,1.1339908E1],"tree_param":{"num_deleted":"0","num_feature":"5000","num_nodes":"29","size_leaf_vector":"1"}},{"base_weights":[8.2655656E-1,1.1446548E0,-2.9857522E-1,2.0986187E-1,8.73189E-1,1.7329602E-1,-4.462622E-1,2.0165076E0,6.3893527E-1,-5.263767E-1,1.2423861E-1,1.4338242E-2,2.0721601E-1,4.1725388E-1,1.6231263E0,-5.968119E-1,6.843032E-1,-3.718397E-1,6.6143167E-1,1.8513266E0,-4.8410345E-2,6.251135E-2,-6.27065E-1,1.3710321E-1,-3.8467627E-2,-4.8111248E-1,1.2583968E-1,8.078177E-1,-2.3864241E-1,1.9128463E0,1.4338242E-2,-6.4248785E-2,1.4338242E-2,-5.6760836E-1,6.549763E-2,1.068889E0,7.1693785E-2,-4.0909356E-1,1.10684454E-1,1.9793684E0,1.4338242E-2,-6.31117E-2,6.251135E-2,1.1719394E-1,-2.122174E-2,-1.5130477E-2,1.5272613E-1,6.251135E-2,-5.3402107E-2,6.549763E-2,2.049083E-1],"categories":[],"categories_nodes":[],"categories_segments":[],"categories_sizes":[],"default_left":[1,0,0,0,0,0,1,0,1,1,0,0,0,0,1,0,0,1,1,1,0,0,1,0,0,1,0,1,1,1,0,0,0,1,0,1,1,0,0,0,0,0,0,0,0,0,0,0,0,0,0],"id":3,"left_children":[1,3,5,-1,7,-1,9,11,13,15,-1,-1,-1,17,19,21,23,25,27,29,-1,-1,31,-1,-1,33,-1,35,37,39,-1,-1,-1,41,-1,43,45,47,-1,49,-1,-1,-1,-1,-1,-1,-1,-1,-1,-1,-1],"loss_changes":[1.2121976E2,6.640744E1,2.3345741E1,0E0,5.4110275E1,0E0,1.0249756E1,3.3211823E0,3.70969E1,6.242853E0,0E0,0E0,0E0,2.7732233E1,1.6035164E1,2.8019505E0,3.6308374E0,6.7247806E0,1.4594215E1,2.7322083E0,0E0,0E0,8.5398483E-1,0E0,0E0,3.6064038E0,0E0,1.8034504E1,4.136426E0,2.9576035E0,0E0,0E0,0E0,2.7520838E0,0E0,9.423401E0,8.587469E0,2.27003E0,0E0,1.1010895E0,0E0,0E0,0E0,0E0,0E0,0E0,0E0,0E0,0E0,0E0,0E0],"parents":[2147483647,0,0,1,1,2,2,4,4,6,6,7,7,8,8,9,9,13,13,14,14,15,15,16,16,17,17,18,18,19,19,22,22,25,25,27,27,28,28,29,29,33,33,35,35,36,36,37,37,39,39],"right_children":[2,4,6,-1,8,-1,10,12,14,16,-1,-1,-1,18,20,22,24,26,28,30,-1,-1,32,-1,-1,34,-1,36,38,40,-1,-1,-1,42,-1,44,46,48,-1,50,-1,-1,-1,-1,-1,-1,-1,-1,-1,-1,-1],"split_conditions":[4.287132E-2,3.2719466E-1,7.803226E-2,2.0986187E-1,2.0199333E-1,1.7329602E-1,6.441176E-2,8.34667E-2,1.1233547E-1,6.1023127E-2,1.2423861E-1,1.4338242E-2,2.0721601E-1,6.1243072E-2,5.1657733E-2,2.5208592E-1,7.329329E-2,5.0560106E-2,3.4133676E-2,4.490819E-2,-4.8410345E-2,6.251135E-2,6.2099263E-2,1.3710321E-1,-3.8467627E-2,1.6763717E-1,1.2583968E-1,1.03411086E-1,6.31067E-2,8.439783E-2,1.4338242E-2,-6.4248785E-2,1.4338242E-2,8.1830285E-2,6.549763E-2,3.469281E-2,5.4611888E-2,3.558681E-1,1.10684454E-1,8.881366E-2,1.4338242E-2,-6.31117E-2,6.251135E-2,1.1719394E-1,-2.122174E-2,-1.5130477E-2,1.5272613E-1,6.251135E-2,-5.3402107E-2,6.549763E-2,2.049083E-1],"split_indices":[1041,3934,3934,0,4262,0,529,1656,4932,1218,0,0,0,2415,944,1266,944,1776,1288,2367,0,0,306,0,0,488,0,3632,113,4697,0,0,0,2776,0,1962,4710,464,0,48,0,0,0,0,0,0,0,0,0,0,0],"split_type":[0,0,0,0,0,0,0,0,0,0,0,0,0,0,0,0,0,0,0,0,0,0,0,0,0,0,0,0,0,0,0,0,0,0,0,0,0,0,0,0,0,0,0,0,0,0,0,0,0,0,0],"sum_hessian":[3.367401E2,2.6250665E2,7.4233444E1,5.6661274E1,2.058454E2,4.303388E0,6.993005E1,3.3709873E1,1.7213551E2,6.741975E1,2.5103097E0,1.075847E0,3.2634026E1,1.4165318E2,3.0482332E1,6.419221E1,3.227541E0,3.3351257E1,1.0830193E2,2.7613407E1,2.8689253E0,1.075847E0,6.3116356E1,1.7930783E0,1.4344627E0,3.1916794E1,1.4344627E0,9.3240074E1,1.5061858E1,2.653756E1,1.075847E0,6.2040512E1,1.075847E0,3.0123716E1,1.7930783E0,6.849559E1,2.474448E1,1.3986011E1,1.075847E0,2.5461712E1,1.075847E0,2.9047869E1,1.075847E0,6.347497E1,5.0206194E0,2.223417E1,2.5103097E0,1.075847E0,1.2910164E1,1.7930783E0,2.3668634E1],"tree_param":{"num_deleted":"0","num_feature":"5000","num_nodes":"51","size_leaf_vector":"1"}},{"base_weights":[-1.6709724E-1,-3.754423E-1,2.430391E0,1.9679986E-1,-4.0083995E-1,2.6672199E0,-3.3599794E-2,-4.3815136E-1,1.1639723E0,2.9395935E-1,2.6254074E-3,-4.6025842E-1,1.826161E-1,-3.6209483E-2,1.8753938E-1,-4.8250127E-1,1.5796496E-1,1.3787483E-1,-5.049649E-1,-5.228395E-1,6.747593E-1,-5.365748E-2,6.7390375E-2,1.6479991E-1,-3.6209483E-2],"categories":[],"categories_nodes":[],"categories_segments":[],"categories_sizes":[],"default_left":[1,0,1,0,1,1,0,1,1,0,0,1,0,0,0,0,0,0,1,1,0,0,0,0,0],"id":4,"left_children":[1,3,5,-1,7,9,-1,11,13,-1,-1,15,-1,-1,-1,17,-1,-1,19,21,23,-1,-1,-1,-1],"loss_changes":[1.3157924E2,1.4143953E1,1.2730057E1,0E0,1.3519012E1,1.1971596E1,0E0,1.1770554E1,6.6095953E0,0E0,0E0,1.0609936E1,0E0,0E0,0E0,9.704819E0,0E0,0E0,4.857525E0,3.8299599E0,4.254755E0,0E0,0E0,0E0,0E0],"parents":[2147483647,0,0,1,1,2,2,4,4,5,5,7,7,8,8,11,11,15,15,18,18,19,19,20,20],"right_children":[2,4,6,-1,8,10,-1,12,14,-1,-1,16,-1,-1,-1,18,-1,-1,20,22,24,-1,-1,-1,-1],"split_conditions":[5.3502783E-2,1.0792427E-1,2.6006604E-2,1.9679986E-1,1.495141E-1,7.556084E-2,-3.3599794E-2,1.2425385E-1,6.829723E-2,2.9395935E-1,2.6254074E-3,6.0133457E-2,1.826161E-1,-3.6209483E-2,1.8753938E-1,1.3798635E-1,1.5796496E-1,1.3787483E-1,3.4419794E-2,1.4279723E-1,8.400582E-2,-5.365748E-2,6.7390375E-2,1.6479991E-1,-3.6209483E-2],"split_indices":[1554,4324,4838,0,944,4273,0,265,48,0,0,4638,0,0,0,4111,0,0,2552,381,3439,0,0,0,0],"split_type":[0,0,0,0,0,0,0,0,0,0,0,0,0,0,0,0,0,0,0,0,0,0,0,0,0],"sum_hessian":[2.4045064E2,2.2338809E2,1.7062546E1,1.5750042E0,2.218131E2,1.5750042E1,1.3125036E0,2.1735059E2,4.462512E0,1.4175038E1,1.5750042E0,2.1603809E2,1.3125036E0,1.5750042E0,2.8875077E0,2.1446307E2,1.5750042E0,1.8375049E0,2.1262556E2,2.1000056E2,2.6250072E0,2.0816306E2,1.8375049E0,1.0500028E0,1.5750042E0],"tree_param":{"num_deleted":"0","num_feature":"5000","num_nodes":"25","size_leaf_vector":"1"}},{"base_weights":[-2.6950046E-1,-3.946033E-1,2.9578286E-1,-5.020826E-1,2.1522067E0,-5.366256E-1,1.2854862E0,2.5686576E0,-3.304346E-2,1.4243194E-1,-5.543969E-1,2.2298339E-1,-3.565E-2,6.905523E-2,2.735186E-1,-5.720854E-1,1.6133611E-1,-5.766535E-1,1.9638775E-2,9.171683E-1,-4.440738E-2,-5.812652E-1,1.9638775E-2,-2.977768E-2,1.6788815E-1,-5.8592122E-2,1.9638775E-2],"categories":[],"categories_nodes":[],"categories_segments":[],"categories_sizes":[],"default_left":[1,1,0,1,1,0,0,0,0,0,1,0,0,0,0,1,0,1,0,0,0,1,0,0,0,0,0],"id":5,"left_children":[1,3,-1,5,7,9,11,13,-1,-1,15,-1,-1,-1,-1,17,19,21,-1,23,-1,25,-1,-1,-1,-1,-1],"loss_changes":[9.9312485E1,6.5378654E1,0E0,1.4656982E1,1.0878365E1,8.547394E0,7.9008365E0,7.450104E-1,0E0,0E0,2.894432E0,0E0,0E0,0E0,0E0,8.7226105E-1,3.206856E0,8.8131714E-1,0E0,3.3199635E0,0E0,8.9053345E-1,0E0,0E0,0E0,0E0,0E0],"parents":[2147483647,0,0,1,1,3,3,4,4,5,5,6,6,7,7,10,10,15,15,16,16,17,17,19,19,21,21],"right_children":[2,4,-1,6,8,10,12,14,-1,-1,16,-1,-1,-1,-1,18,20,22,-1,24,-1,26,-1,-1,-1,-1,-1],"split_conditions":[1.6638376E-2,2.8946532E-2,2.9578286E-1,1.1065713E-1,6.515747E-2,2.9112527E-1,1.4415674E-1,7.373234E-2,-3.304346E-2,1.4243194E-1,4.784388E-2,2.2298339E-1,-3.565E-2,6.905523E-2,2.735186E-1,1.0061625E-1,4.4871617E-2,1.5063666E-1,1.9638775E-2,2.8380802E-2,-4.440738E-2,1.3625765E-1,1.9638775E-2,-2.977768E-2,1.6788815E-1,-5.8592122E-2,1.9638775E-2],"split_indices":[4839,4246,0,869,3439,3822,866,288,0,0,1976,0,0,0,0,192,944,306,0,186,0,2192,0,0,0,0,0],"split_type":[0,0,0,0,0,0,0,0,0,0,0,0,0,0,0,0,0,0,0,0,0,0,0,0,0,0,0],"sum_hessian":[2.4208554E2,2.338966E2,8.18894E0,2.2519585E2,8.700748E0,2.2161319E2,3.5826612E0,7.421227E0,1.279522E0,1.279522E0,2.2033366E2,2.047235E0,1.5354263E0,1.0236175E0,6.397609E0,2.1521558E2,5.118088E0,2.1419196E2,1.0236175E0,2.047235E0,3.0708525E0,2.1316835E2,1.0236175E0,1.0236175E0,1.0236175E0,2.1214473E2,1.0236175E0],"tree_param":{"num_deleted":"0","num_feature":"5000","num_nodes":"27","size_leaf_vector":"1"}},{"base_weights":[-1.4750616E-1,-3.2867408E-1,1.1770278E0,-4.998452E-1,6.451821E-1,-1.6522296E-1,1.645788E0,-5.322142E-1,1.3217865E-1,1.7662176E0,-3.3199683E-1,-5.0428223E-2,8.465376E-2,-4.207931E-2,1.9438871E0,-5.543977E-1,8.9515036E-1,-3.7456688E-2,2.0802824E0,-5.5161294E-2,1.4567098E-1,-3.5272107E-2,2.1629217E0,-5.713377E-1,9.041235E-2,1.6129883E-1,-2.94489E-2,3.0148847E-2,2.349695E-1,5.7636626E-2,2.244261E-1,-5.8279354E-2,5.2211452E-2],"categories":[],"categories_nodes":[],"categories_segments":[],"categories_sizes":[],"default_left":[1,1,0,1,0,0,0,1,0,0,1,0,0,0,0,1,0,0,0,0,0,0,0,1,0,0,0,0,0,0,0,0,0],"id":6,"left_children":[1,3,5,7,9,11,13,15,-1,17,19,-1,-1,-1,21,23,25,-1,27,-1,-1,-1,29,31,-1,-1,-1,-1,-1,-1,-1,-1,-1],"loss_changes":[5.7467896E1,3.5334442E1,1.8417622E1,1.126989E1,3.545988E1,3.2994242E0,1.404203E1,6.0939407E0,0E0,1.0853836E1,7.8157263E0,0E0,0E0,0E0,1.0289368E1,4.83284E0,3.11199E0,0E0,5.626938E0,0E0,0E0,0E0,9.5571136E-1,2.4751472E0,0E0,0E0,0E0,0E0,0E0,0E0,0E0,0E0,0E0],"parents":[2147483647,0,0,1,1,2,2,3,3,4,4,5,5,6,6,7,7,9,9,10,10,14,14,15,15,16,16,18,18,22,22,23,23],"right_children":[2,4,6,8,10,12,14,16,-1,18,20,-1,-1,-1,22,24,26,-1,28,-1,-1,-1,30,32,-1,-1,-1,-1,-1,-1,-1,-1,-1],"split_conditions":[7.776437E-2,5.4159023E-2,4.910855E-2,1.0971821E-1,7.280968E-2,1.435053E-1,1.7984061E-1,8.5671805E-2,1.3217865E-1,1.6836149E-1,1.18458845E-1,-5.0428223E-2,8.465376E-2,-4.207931E-2,2.7085543E-1,1.060797E-1,7.942713E-2,-3.7456688E-2,6.276539E-2,-5.5161294E-2,1.4567098E-1,-3.5272107E-2,1.3272314E-1,1.0038722E-1,9.041235E-2,1.6129883E-1,-2.94489E-2,3.0148847E-2,2.349695E-1,5.7636626E-2,2.244261E-1,-5.8279354E-2,5.2211452E-2],"split_indices":[1336,3768,2266,3120,2415,4154,166,1538,0,944,2403,0,0,0,1041,996,1537,0,3153,0,0,0,944,266,0,0,0,0,0,0,0,0,0],"split_type":[0,0,0,0,0,0,0,0,0,0,0,0,0,0,0,0,0,0,0,0,0,0,0,0,0,0,0,0,0,0,0,0,0],"sum_hessian":[2.3687425E2,2.0903464E2,2.7839607E1,1.7819984E2,3.0834803E1,7.3735814E0,2.0466026E1,1.7578412E2,2.4157143E0,1.3984309E1,1.6850492E1,5.898475E0,1.4751062E0,2.5281258E0,1.79379E1,1.7369621E2,2.0879176E0,1.764458E0,1.22198515E1,1.5623824E1,1.2266682E0,1.508694E0,1.6429207E1,1.7230327E2,1.3929373E0,1.0802331E0,1.0076845E0,1.8860812E0,1.0333771E1,1.1955465E0,1.5233661E1,1.7097899E2,1.3242886E0],"tree_param":{"num_deleted":"0","num_feature":"5000","num_nodes":"33","size_leaf_vector":"1"}},{"base_weights":[-2.0617488E-1,-2.927923E-1,1.9299798E0,-3.6718416E-1,1.398202E0,2.1397536E0,1.7150462E-2,-3.888276E-1,1.7755564E-1,-1.7285705E-1,2.0596023E-1,6.1085105E-2,2.3002045E-1,1.6635929E-1,-4.06418E-1,1.8415324E-2,-3.7474908E-2,-4.2753845E-1,9.789631E-1,-4.4482213E-1,8.2238144E-1,-3.0187389E-2,1.6337594E-1,-4.583501E-1,1.1319454E-1,1.1724324E-2,1.2059362E-1,-4.7192074E-2,1.0675186E-1],"categories":[],"categories_nodes":[],"categories_segments":[],"categories_sizes":[],"default_left":[1,1,1,1,0,1,0,0,0,0,0,0,0,0,1,0,0,1,0,1,0,0,0,1,0,0,0,0,0],"id":7,"left_children":[1,3,5,7,9,11,-1,13,-1,15,-1,-1,-1,-1,17,-1,-1,19,21,23,25,-1,-1,27,-1,-1,-1,-1,-1],"loss_changes":[4.4040638E1,2.9028786E1,3.059185E0,1.0796659E1,1.0497686E1,6.091728E-1,0E0,8.494564E0,0E0,3.4392494E-1,0E0,0E0,0E0,0E0,6.7247467E0,0E0,0E0,4.966938E0,3.4624326E0,5.013733E0,7.3921466E-1,0E0,0E0,4.84494E0,0E0,0E0,0E0,0E0,0E0],"parents":[2147483647,0,0,1,1,2,2,3,3,4,4,5,5,7,7,9,9,14,14,17,17,18,18,19,19,20,20,23,23],"right_children":[2,4,6,8,10,12,-1,14,-1,16,-1,-1,-1,-1,18,-1,-1,20,22,24,26,-1,-1,28,-1,-1,-1,-1,-1],"split_conditions":[2.9478988E-2,5.8555655E-2,4.9875736E-2,4.0907044E-2,1.0725476E-1,2.5349794E-2,1.7150462E-2,4.7648633E-1,1.7755564E-1,1.9805823E-1,2.0596023E-1,6.1085105E-2,2.3002045E-1,1.6635929E-1,7.718524E-2,1.8415324E-2,-3.7474908E-2,1.2934045E-1,4.1699763E-2,1.3830675E-1,1.1563755E-1,-3.0187389E-2,1.6337594E-1,7.872732E-2,1.1319454E-1,1.1724324E-2,1.2059362E-1,-4.7192074E-2,1.0675186E-1],"split_indices":[3407,451,747,3663,944,2868,0,99,0,1577,0,0,0,0,1093,0,0,3824,207,4085,2415,0,0,908,0,0,0,0,0],"split_type":[0,0,0,0,0,0,0,0,0,0,0,0,0,0,0,0,0,0,0,0,0,0,0,0,0,0,0,0,0],"sum_hessian":[2.3396718E2,2.256792E2,8.287971E0,2.1691914E2,8.760059E0,7.2109337E0,1.077037E0,2.1556035E2,1.3587984E0,2.8141384E0,5.945921E0,1.1414441E0,6.0694895E0,1.036607E0,2.1452374E2,1.0482885E0,1.7658501E0,2.119834E2,2.5403464E0,2.0972743E2,2.2559552E0,1.0416911E0,1.4986553E0,2.0864665E2,1.0807825E0,1.2547894E0,1.0011659E0,2.07492E2,1.1546549E0],"tree_param":{"num_deleted":"0","num_feature":"5000","num_nodes":"29","size_leaf_vector":"1"}},{"base_weights":[-2.5556427E-1,-3.4703505E-1,9.8928285E-1,-3.8115606E-1,1.7037152E-1,-2.5605908E-1,1.9123455E0,-4.1962555E-1,1.2558057E0,6.374315E-2,-5.0066937E-2,2.1380172E0,1.4741363E-2,-4.4645086E-1,1.2770591E0,1.922202E-1,-3.450533E-2,6.1065532E-2,2.2979267E-1,1.5457723E-1,-4.696632E-1,1.8244091E-2,1.6713184E-1,8.5443103E-1,-4.8801512E-1,1.8528046E-2,1.0972992E-1,-5.066297E-1,6.2608606E-1,-5.2099407E-2,6.156495E-2,1.6343115E-1,-3.6890816E-2],"categories":[],"categories_nodes":[],"categories_segments":[],"categories_sizes":[],"default_left":[1,1,0,1,0,0,1,1,1,0,0,0,0,0,1,0,0,0,0,0,0,0,0,0,1,0,0,1,1,0,0,0,0],"id":8,"left_children":[1,3,5,7,-1,9,11,13,15,-1,-1,17,-1,19,21,-1,-1,-1,-1,-1,23,-1,-1,25,27,-1,-1,29,31,-1,-1,-1,-1],"loss_changes":[2.6648335E1,1.5759661E1,1.8965637E1,1.3954428E1,0E0,2.0072408E0,3.408409E0,1.0086189E1,6.1533833E0,0E0,0E0,6.0316086E-1,0E0,1.0278458E1,1.2112589E0,0E0,0E0,0E0,0E0,0E0,5.3972855E0,0E0,0E0,3.111093E-1,4.522728E0,0E0,0E0,3.5450478E0,4.3947363E0,0E0,0E0,0E0,0E0],"parents":[2147483647,0,0,1,1,2,2,3,3,5,5,6,6,7,7,8,8,11,11,13,13,14,14,20,20,23,23,24,24,27,27,28,28],"right_children":[2,4,6,8,-1,10,12,14,16,-1,-1,18,-1,20,22,-1,-1,-1,-1,-1,24,-1,-1,26,28,-1,-1,30,32,-1,-1,-1,-1],"split_conditions":[2.0451865E-1,9.281272E-2,2.8531295E-1,1.3716899E-1,1.7037152E-1,1.13958396E-1,1.0793633E-1,6.739468E-2,3.475948E-2,6.374315E-2,-5.0066937E-2,2.4199179E-1,1.4741363E-2,1.01785995E-1,2.8403262E-2,1.922202E-1,-3.450533E-2,6.1065532E-2,2.2979267E-1,1.5457723E-1,1.8005458E-1,1.8244091E-2,1.6713184E-1,1.1869647E-1,3.562272E-2,1.8528046E-2,1.0972992E-1,4.7152865E-1,2.7826939E-2,-5.2099407E-2,6.156495E-2,1.6343115E-1,-3.6890816E-2],"split_indices":[1041,772,4560,464,0,4241,1902,3513,1902,0,0,1137,0,2255,2201,0,0,0,0,0,100,0,0,1776,4914,0,0,1874,4602,0,0,0,0],"split_type":[0,0,0,0,0,0,0,0,0,0,0,0,0,0,0,0,0,0,0,0,0,0,0,0,0,0,0,0,0,0,0,0,0],"sum_hessian":[2.3001498E2,2.1494234E2,1.5072641E1,2.122254E2,2.7169328E0,6.7238355E0,8.348805E0,2.0807909E2,4.1463146E0,1.0999885E0,5.623847E0,7.2148914E0,1.1339141E0,2.0556587E2,2.5132165E0,2.7858894E0,1.3604255E0,1.1404778E0,6.074414E0,1.6121122E0,2.0395377E2,1.0528464E0,1.4603701E0,2.1653478E0,2.0178842E2,1.046078E0,1.11927E0,1.990086E2,2.7798116E0,1.9702263E2,1.9859722E0,1.0615808E0,1.7182307E0],"tree_param":{"num_deleted":"0","num_feature":"5000","num_nodes":"33","size_leaf_vector":"1"}},{"base_weights":[7.391902E-1,1.7257582E0,4.8718354E-1,1.7376594E-1,5.51542E-2,7.484369E-1,-4.2721182E-1,1.6903523E0,5.6139344E-1,-5.0191426E-1,1.2797074E-1,5.481065E-2,1.7135665E-1,3.8505384E-1,1.3124834E0,-5.6486684E-1,1.1470177E-1,2.2999209E-1,1.1805316E0,1.5368004E0,-5.047041E-2,-5.9728324E-1,5.815659E-2,4.262773E-2,1.090196E0,-4.2446587E-2,1.330135E0,2.4476705E-2,1.6137406E0,-6.3087806E-2,2.8190067E-2,-5.0394285E-1,2.1811186E-1,-2.9203215E-1,1.366897E0,-3.819088E-2,1.4648659E0,1.6422545E0,5.257544E-2,-5.7768818E-2,5.888882E-2,5.171295E-2,-2.757678E-2,1.4905343E-2,-4.679212E-2,-3.9457E-2,1.5381859E-1,1.7060973E-1,1.6785657E-2,1.6717611E-1,5.3704817E-2],"categories":[],"categories_nodes":[],"categories_segments":[],"categories_sizes":[],"default_left":[0,1,1,0,0,0,1,0,1,1,0,0,0,1,1,1,0,1,0,0,0,1,0,0,0,0,0,0,1,0,0,1,1,0,0,0,1,1,0,0,0,0,0,0,0,0,0,0,0,0,0],"id":9,"left_children":[1,3,5,-1,-1,7,9,11,13,15,-1,-1,-1,17,19,21,-1,23,25,27,-1,29,-1,31,33,-1,35,-1,37,-1,-1,39,41,43,45,-1,47,49,-1,-1,-1,-1,-1,-1,-1,-1,-1,-1,-1,-1,-1],"loss_changes":[8.57061E1,2.5894165E-2,6.689149E1,0E0,0E0,3.730114E1,8.619819E0,1.3809204E-3,2.3684212E1,6.944536E0,0E0,0E0,0E0,1.8147488E1,1.4761635E1,2.543623E0,0E0,2.029463E1,6.35553E0,2.6656418E0,0E0,1.8899269E0,0E0,1.0149798E1,9.017002E0,0E0,5.703987E0,0E0,3.2485962E-2,0E0,0E0,2.4147553E0,1.19471E1,4.252461E-1,6.324547E0,0E0,6.24741E0,4.547119E-3,0E0,0E0,0E0,0E0,0E0,0E0,0E0,0E0,0E0,0E0,0E0,0E0,0E0],"parents":[2147483647,0,0,1,1,2,2,5,5,6,6,7,7,8,8,9,9,13,13,14,14,15,15,17,17,18,18,19,19,21,21,23,23,24,24,26,26,28,28,31,31,32,32,33,33,34,34,36,36,37,37],"right_children":[2,4,6,-1,-1,8,10,12,14,16,-1,-1,-1,18,20,22,-1,24,26,28,-1,30,-1,32,34,-1,36,-1,38,-1,-1,40,42,44,46,-1,48,50,-1,-1,-1,-1,-1,-1,-1,-1,-1,-1,-1,-1,-1],"split_conditions":[3.2719466E-1,2.880242E-2,2.2242926E-2,1.7376594E-1,5.51542E-2,4.0399665E-1,1.4062142E-1,3.9587557E-2,9.809197E-2,5.78331E-2,1.2797074E-1,5.481065E-2,1.7135665E-1,2.2078853E-2,5.1657733E-2,1.4374283E-1,1.1470177E-1,5.266242E-2,1.9030692E-1,2.0369413E-1,-5.047041E-2,5.819528E-2,5.815659E-2,2.5491014E-1,4.3895658E-2,-4.2446587E-2,1.22148566E-1,2.4476705E-2,1.1037584E-1,-6.3087806E-2,2.8190067E-2,5.8990538E-2,8.230759E-2,5.9417855E-2,6.1446078E-2,-3.819088E-2,3.4393378E-2,4.0811974E-1,5.257544E-2,-5.7768818E-2,5.888882E-2,5.171295E-2,-2.757678E-2,1.4905343E-2,-4.679212E-2,-3.9457E-2,1.5381859E-1,1.7060973E-1,1.6785657E-2,1.6717611E-1,5.3704817E-2],"split_indices":[3934,928,1041,0,0,4262,488,199,374,95,0,0,0,488,944,3848,0,4522,3108,4947,0,2633,0,1288,343,0,1596,0,166,0,0,869,3632,358,748,0,1998,866,0,0,0,0,0,0,0,0,0,0,0,0,0],"split_type":[0,0,0,0,0,0,0,0,0,0,0,0,0,0,0,0,0,0,0,0,0,0,0,0,0,0,0,0,0,0,0,0,0,0,0,0,0,0,0,0,0,0,0,0,0,0,0,0,0,0,0],"sum_hessian":[3.4710663E2,6.94342E1,2.7767245E2,6.8262474E1,1.1717227E0,2.1610907E2,6.1563377E1,3.44729E1,1.8163617E2,5.9658413E1,1.9049653E0,1.1768557E0,3.3296047E1,1.4832527E2,3.3310886E1,5.80978E1,1.5606127E0,1.2520776E2,2.3117512E1,2.9788088E1,3.5227988E0,5.696604E1,1.1317565E0,1.03675385E2,2.1532383E1,1.8144279E0,2.1303083E1,1.9091742E0,2.7878914E1,5.5141445E1,1.8245997E0,2.4741789E1,7.893359E1,3.582252E0,1.7950132E1,1.4203172E0,1.9882767E1,2.6670488E1,1.2084255E0,2.3619318E1,1.1224717E0,4.913681E1,2.9796782E1,1.064735E0,2.5175169E0,1.4752901E0,1.6474842E1,1.6498749E1,3.3840172E0,2.5477665E1,1.1928225E0],"tree_param":{"num_deleted":"0","num_feature":"5000","num_nodes":"51","size_leaf_vector":"1"}},{"base_weights":[-1.7451386E-1,-3.444131E-1,1.8790599E0,-3.7714446E-1,1.6099992E-1,2.093696E0,-3.649364E-3,-4.139181E-1,1.0987883E0,5.959578E-3,2.2769184E-1,-4.441652E-1,1.4609966E-1,1.708691E-1,-3.518137E-2,-4.7077549E-1,1.4055194E-1,-5.050156E-1,3.0098605E-1,-5.144957E-1,6.933198E-2,1.177066E0,-3.375969E-1,-5.2402955E-2,6.6863954E-2,-2.9813206E-2,1.7335689E-1,2.0205308E-2,-4.778871E-2],"categories":[],"categories_nodes":[],"categories_segments":[],"categories_sizes":[],"default_left":[1,1,1,1,0,0,0,1,0,0,0,1,0,0,0,1,0,1,0,1,0,1,1,0,0,0,0,0,0],"id":10,"left_children":[1,3,5,7,-1,9,-1,11,13,-1,-1,15,-1,-1,-1,17,-1,19,21,23,-1,25,27,-1,-1,-1,-1,-1,-1],"loss_changes":[8.500219E1,1.4945852E1,7.735771E0,1.2463947E1,0E0,6.11409E0,0E0,1.2933044E1,5.602049E0,0E0,0E0,1.1191845E1,0E0,0E0,0E0,5.7449875E0,0E0,2.6632462E0,5.7781086E0,2.6291008E0,0E0,4.028702E0,5.765526E-1,0E0,0E0,0E0,0E0,0E0,0E0],"parents":[2147483647,0,0,1,1,2,2,3,3,5,5,7,7,8,8,11,11,15,15,17,17,18,18,19,19,21,21,22,22],"right_children":[2,4,6,8,-1,10,-1,12,14,-1,-1,16,-1,-1,-1,18,-1,20,22,24,-1,26,28,-1,-1,-1,-1,-1,-1],"split_conditions":[5.4140747E-2,9.542293E-2,7.556084E-2,4.7494687E-2,1.6099992E-1,4.523785E-2,-3.649364E-3,6.499195E-2,1.5222405E-1,5.959578E-3,2.2769184E-1,8.044269E-2,1.4609966E-1,1.708691E-1,-3.518137E-2,4.0829115E-2,1.4055194E-1,1.1228545E-1,4.1233625E-2,1.6296208E-2,6.933198E-2,7.780462E-2,2.005351E-2,-5.2402955E-2,6.6863954E-2,-2.9813206E-2,1.7335689E-1,2.0205308E-2,-4.778871E-2],"split_indices":[1554,265,4273,2671,0,1986,0,1476,944,0,0,4111,0,0,0,4580,0,4147,3312,4969,0,1902,944,0,0,0,0,0,0],"split_type":[0,0,0,0,0,0,0,0,0,0,0,0,0,0,0,0,0,0,0,0,0,0,0,0,0,0,0,0,0],"sum_hessian":[2.407738E2,2.2314456E2,1.7629232E1,2.2026276E2,2.881802E0,1.5769297E1,1.8599355E0,2.1561028E2,4.6524944E0,1.4125613E0,1.4356735E1,2.1293814E2,2.6721265E0,3.1501157E0,1.5023787E0,2.1065309E2,2.2850528E0,2.0203519E2,8.617906E0,2.0101561E2,1.0195818E0,3.277802E0,5.340104E0,1.9996136E2,1.0542347E0,1.024992E0,2.25281E0,1.0109735E0,4.3291306E0],"tree_param":{"num_deleted":"0","num_feature":"5000","num_nodes":"29","size_leaf_vector":"1"}},{"base_weights":[-2.4165012E-1,1.9672375E0,-3.9928117E-1,2.241013E0,-3.4936044E-2,2.1642995E-1,-4.889914E-1,2.358549E-1,5.6244947E-2,-5.213986E-1,1.0405136E0,1.2729721E-1,-5.4060733E-1,1.8122049E-1,-3.499427E-2,-5.5967915E-1,2.4545345E-1,-5.6973195E-1,7.062045E-2,1.1310585E-1,-4.3505486E-2,-5.747688E-1,2.0671876E-2,-5.798566E-2,2.0624142E-2],"categories":[],"categories_nodes":[],"categories_segments":[],"categories_sizes":[],"default_left":[0,1,0,1,0,0,1,0,0,0,0,0,1,0,0,1,0,1,0,0,0,1,0,0,0],"id":11,"left_children":[1,3,5,7,-1,-1,9,-1,-1,11,13,-1,15,-1,-1,17,19,21,-1,-1,-1,23,-1,-1,-1],"loss_changes":[8.0027466E1,1.0504211E1,5.0102646E1,1.4044724E0,0E0,0E0,1.0795975E1,0E0,0E0,7.693199E0,5.5977173E0,0E0,3.1624336E0,0E0,0E0,2.9132385E0,3.7916172E0,8.865471E-1,0E0,0E0,0E0,8.95668E-1,0E0,0E0,0E0],"parents":[2147483647,0,0,1,1,2,2,3,3,6,6,9,9,10,10,12,12,15,15,16,16,17,17,21,21],"right_children":[2,4,6,8,-1,-1,10,-1,-1,12,14,-1,16,-1,-1,18,20,22,-1,-1,-1,24,-1,-1,-1],"split_conditions":[4.7962904E-1,6.515747E-2,1.6865984E-1,3.5023436E-2,-3.4936044E-2,2.1642995E-1,1.1065713E-1,2.358549E-1,5.6244947E-2,2.9112527E-1,1.4415674E-1,1.2729721E-1,4.784388E-2,1.8122049E-1,-3.499427E-2,6.699103E-2,4.9084097E-2,1.2273097E-1,7.062045E-2,1.1310585E-1,-4.3505486E-2,1.2415779E-1,2.0671876E-2,-5.798566E-2,2.0624142E-2],"split_indices":[4246,3439,4839,2836,0,0,869,0,0,3822,866,0,1976,0,0,2808,2625,3510,0,0,0,2674,0,0,0],"split_type":[0,0,0,0,0,0,0,0,0,0,0,0,0,0,0,0,0,0,0,0,0,0,0,0,0],"sum_hessian":[2.2658304E2,1.4327763E1,2.1225526E2,1.2842647E1,1.4851162E0,6.394656E0,2.0586061E2,1.162364E1,1.2190063E0,2.0223477E2,3.6258497E0,1.450674E0,2.0078409E2,2.1366892E0,1.4891605E0,1.9630914E2,4.474955E0,1.9530807E2,1.0010685E0,1.6567729E0,2.8181822E0,1.9430734E2,1.000724E0,1.9330563E2,1.0017048E0],"tree_param":{"num_deleted":"0","num_feature":"5000","num_nodes":"25","size_leaf_vector":"1"}},{"base_weights":[-1.7005199E-1,-3.132857E-1,1.4017894E0,-4.5990616E-1,4.489691E-1,-2.2492795E-1,1.7531998E0,-4.9590784E-1,1.4719664E-1,1.2429571E0,-2.1538417E-1,-4.1103493E-2,2.0386565E-2,1.8759511E-1,1.12628555E-2,-5.4896975E-1,6.275017E-1,-4.1109744E-2,1.5438428E0,-3.962946E-1,1.2887232E-1,-5.6586355E-1,5.106071E-1,1.360896E0,-4.48036E-2,-3.4861457E-2,1.7951607E0,-5.487437E-2,1.0456481E-1,-5.7164556E-1,2.0375442E-2,1.00580804E-1,-2.9371554E-2,1.6315894E-1,1.6068986E-2,5.476712E-2,1.8825348E-1,-5.7735026E-2,1.6181566E-2],"categories":[],"categories_nodes":[],"categories_segments":[],"categories_sizes":[],"default_left":[1,1,0,1,0,1,1,1,0,0,1,0,0,0,0,1,1,0,0,1,0,1,0,0,0,0,0,0,0,1,0,0,0,0,0,0,0,0,0],"id":12,"left_children":[1,3,5,7,9,11,13,15,-1,17,19,-1,-1,-1,-1,21,23,-1,25,27,-1,29,31,33,-1,-1,35,-1,-1,37,-1,-1,-1,-1,-1,-1,-1,-1,-1],"loss_changes":[5.3492123E1,2.443443E1,1.1748554E1,1.3409313E1,1.8981606E1,4.3610308E-1,3.100956E0,1.1057438E1,0E0,8.751623E0,5.998549E0,0E0,0E0,0E0,0E0,3.3703613E0,7.3715134E0,0E0,7.2889023E0,4.6992807E0,0E0,8.726082E-1,1.5808368E0,1.4741907E0,0E0,0E0,3.3472824E-1,0E0,0E0,8.0018234E-1,0E0,0E0,0E0,0E0,0E0,0E0,0E0,0E0,0E0],"parents":[2147483647,0,0,1,1,2,2,3,3,4,4,5,5,6,6,7,7,9,9,10,10,15,15,16,16,18,18,19,19,21,21,22,22,23,23,26,26,29,29],"right_children":[2,4,6,8,10,12,14,16,-1,18,20,-1,-1,-1,-1,22,24,-1,26,28,-1,30,32,34,-1,-1,36,-1,-1,38,-1,-1,-1,-1,-1,-1,-1,-1,-1],"split_conditions":[8.546792E-2,5.4159023E-2,1.6479778E-1,8.989628E-2,7.063599E-2,1.082049E-1,1.2614083E-1,7.903862E-2,1.4719664E-1,2.1368976E-1,1.3585444E-1,-4.1103493E-2,2.0386565E-2,1.8759511E-1,1.12628555E-2,8.839783E-2,4.987319E-2,-4.1109744E-2,2.607447E-1,1.718981E-1,1.2887232E-1,1.4604692E-1,1.5704952E-1,9.848291E-2,-4.48036E-2,-3.4861457E-2,3.7585396E-2,-5.487437E-2,1.0456481E-1,2.1490215E-1,2.0375442E-2,1.00580804E-1,-2.9371554E-2,1.6315894E-1,1.6068986E-2,5.476712E-2,1.8825348E-1,-5.7735026E-2,1.6181566E-2],"split_indices":[1379,3768,944,2908,2415,1435,1472,3716,0,866,323,0,0,0,0,2519,4383,0,374,377,0,1531,48,2149,0,0,2952,0,0,1216,0,0,0,0,0,0,0,0,0],"split_type":[0,0,0,0,0,0,0,0,0,0,0,0,0,0,0,0,0,0,0,0,0,0,0,0,0,0,0,0,0,0,0,0,0,0,0,0,0,0,0],"sum_hessian":[2.3464362E2,2.1578128E2,1.8862333E1,1.8130394E2,3.4477345E1,3.4147956E0,1.5447537E1,1.7871675E2,2.587198E0,1.5309538E1,1.9167807E1,2.4101477E0,1.004648E0,1.4238691E1,1.208846E0,1.7114442E2,7.5723147E0,2.2999213E0,1.3009617E1,1.776732E1,1.4004855E0,1.6891719E2,2.2272444E0,4.344526E0,3.2277887E0,1.47975E0,1.1529867E1,1.6628696E1,1.1386249E0,1.679129E2,1.0042765E0,1.2234775E0,1.0037669E0,3.2517133E0,1.0928124E0,1.2304308E0,1.0299436E1,1.668282E2,1.0847054E0],"tree_param":{"num_deleted":"0","num_feature":"5000","num_nodes":"39","size_leaf_vector":"1"}},{"base_weights":[-2.3367453E-1,-3.0578443E-1,1.5241876E0,-3.8604495E-1,1.1953932E0,1.1257854E-2,1.7286177E0,-4.428911E-1,3.1845796E-1,1.6470675E0,-4.093658E-2,1.8711995E-1,5.395524E-2,-4.5764711E-1,1.0089413E-1,1.6406617E-1,2.2892173E-2,1.8841802E-1,1.1175389E-2,-4.7238708E-1,1.0000867E-1,-4.2039013E-1,8.41814E-1,-4.8715833E-1,6.772143E-2,-5.1444203E-2,2.023967E-2,1.2675582E0,-3.2040164E-2,-5.019983E-1,4.4284585E-1,1.6987589E-1,1.3359253E-2,-5.1237583E-2,7.067224E-2,6.0513252E-3,6.887255E-2],"categories":[],"categories_nodes":[],"categories_segments":[],"categories_sizes":[],"default_left":[1,1,0,1,1,0,1,1,0,1,0,0,0,1,0,0,0,0,0,1,0,1,1,1,0,0,0,1,0,1,0,0,0,0,0,0,0],"id":13,"left_children":[1,3,5,7,9,-1,11,13,15,17,-1,-1,-1,19,-1,-1,21,-1,-1,23,-1,25,27,29,-1,-1,-1,31,-1,33,35,-1,-1,-1,-1,-1,-1],"loss_changes":[2.9097605E1,2.6703842E1,2.4220848E0,8.451357E0,8.863432E0,0E0,3.2142258E-1,4.5842743E0,6.244627E0,3.0715103E0,0E0,0E0,0E0,4.5803833E0,0E0,0E0,5.4914303E0,0E0,0E0,3.5554543E0,0E0,6.81026E-1,3.030268E0,2.8186073E0,0E0,0E0,0E0,1.7696381E0,0E0,2.6906433E0,2.8603232E-1,0E0,0E0,0E0,0E0,0E0,0E0],"parents":[2147483647,0,0,1,1,2,2,3,3,4,4,6,6,7,7,8,8,9,9,13,13,16,16,19,19,21,21,22,22,23,23,27,27,29,29,30,30],"right_children":[2,4,6,8,10,-1,12,14,16,18,-1,-1,-1,20,-1,-1,22,-1,-1,24,-1,26,28,30,-1,-1,-1,32,-1,34,36,-1,-1,-1,-1,-1,-1],"split_conditions":[2.9478988E-2,5.8555655E-2,6.412007E-2,4.5067675E-2,2.562248E-2,1.1257854E-2,3.9917387E-2,1.06834814E-1,2.2905675E-1,1.4032784E-1,-4.093658E-2,1.8711995E-1,5.395524E-2,4.1413624E-2,1.0089413E-1,1.6406617E-1,1.8081544E-1,1.8841802E-1,1.1175389E-2,7.487559E-2,1.0000867E-1,1.0026925E-1,6.2157422E-2,1.5759934E-1,6.772143E-2,-5.1444203E-2,2.023967E-2,6.984273E-2,-3.2040164E-2,1.14882745E-1,8.080816E-2,1.6987589E-1,1.3359253E-2,-5.1237583E-2,7.067224E-2,6.0513252E-3,6.887255E-2],"split_indices":[3407,451,3632,4273,4250,0,4013,912,2694,59,0,0,0,2925,0,0,4383,0,0,3848,0,4573,3824,748,0,0,0,325,0,4373,48,0,0,0,0,0,0],"split_type":[0,0,0,0,0,0,0,0,0,0,0,0,0,0,0,0,0,0,0,0,0,0,0,0,0,0,0,0,0,0,0,0,0,0,0,0,0],"sum_hessian":[2.2487321E2,2.168056E2,8.0676155E0,2.065075E2,1.0298091E1,1.2167232E0,6.8508925E0,1.9143224E2,1.5075269E1,8.015648E0,2.2824428E0,5.605107E0,1.2457858E0,1.9018404E2,1.2482017E0,1.9227943E0,1.3152474E1,6.7464967E0,1.2691513E0,1.8894942E2,1.2346278E0,8.849108E0,4.3033667E0,1.8712132E2,1.82809E0,7.8392143E0,1.0098934E0,3.083263E0,1.2201037E0,1.8463535E2,2.4859805E0,1.8729773E0,1.2102857E0,1.8363483E2,1.0005082E0,1.4607242E0,1.0252562E0],"tree_param":{"num_deleted":"0","num_feature":"5000","num_nodes":"37","size_leaf_vector":"1"}},{"base_weights":[-2.270621E-1,-3.24448E-1,9.0177834E-1,-3.5968915E-1,1.7925464E-1,-2.654215E-1,1.6641804E0,-3.953172E-1,1.6362551E-1,-4.9963694E-2,6.1713327E-2,3.427764E-2,1.8736345E-1,-4.2744467E-1,1.617089E-1,1.4609289E-1,-4.464236E-1,-4.700134E-1,1.100375E0,-4.8900992E-1,8.772276E-1,1.4750776E-1,1.7104747E-2,9.256252E-2,-5.0379157E-2,1.1737909E-1,1.691491E-2],"categories":[],"categories_nodes":[],"categories_segments":[],"categories_sizes":[],"default_left":[1,1,0,1,0,1,0,1,0,0,0,0,0,0,0,0,1,1,1,0,1,0,0,0,0,0,0],"id":14,"left_children":[1,3,5,7,-1,9,11,13,-1,-1,-1,-1,-1,15,-1,-1,17,19,21,23,25,-1,-1,-1,-1,-1,-1],"loss_changes":[2.4982903E1,1.6124798E1,1.6549934E1,1.5219572E1,0E0,1.9650172E0,2.4263763E0,1.3760227E1,0E0,0E0,0E0,0E0,0E0,7.8112335E0,0E0,0E0,7.761368E0,5.4515953E0,8.904059E-1,4.526413E0,4.496181E-1,0E0,0E0,0E0,0E0,0E0,0E0],"parents":[2147483647,0,0,1,1,2,2,3,3,5,5,6,6,7,7,13,13,16,16,17,17,18,18,19,19,20,20],"right_children":[2,4,6,8,-1,10,12,14,-1,-1,-1,-1,-1,16,-1,-1,18,20,22,24,26,-1,-1,-1,-1,-1,-1],"split_conditions":[2.0451865E-1,4.8328444E-2,7.949466E-1,1.7183161E-1,1.7925464E-1,4.653985E-2,2.2303526E-1,9.281272E-2,1.6362551E-1,-4.9963694E-2,6.1713327E-2,3.427764E-2,1.8736345E-1,6.517207E-2,1.617089E-1,1.4609289E-1,3.308341E-2,1.5494671E-1,6.6553764E-2,3.9374113E-1,3.106706E-2,1.4750776E-1,1.7104747E-2,9.256252E-2,-5.0379157E-2,1.1737909E-1,1.691491E-2],"split_indices":[1041,3677,1537,167,0,1086,4493,772,0,0,0,0,0,2255,0,0,100,961,488,2590,2149,0,0,0,0,0,0],"split_type":[0,0,0,0,0,0,0,0,0,0,0,0,0,0,0,0,0,0,0,0,0,0,0,0,0,0,0],"sum_hessian":[2.23594E2,2.0649234E2,1.710166E1,2.0392769E2,2.5646467E0,7.014567E0,1.0087093E1,2.0113925E2,2.7884402E0,5.8863115E0,1.1282554E0,1.7408625E0,8.346231E0,1.987538E2,2.3854508E0,1.2216854E0,1.9753212E2,1.9525055E2,2.2815754E0,1.931639E2,2.086641E0,1.2074733E0,1.0741022E0,1.360305E0,1.9180359E2,1.0071185E0,1.0795227E0],"tree_param":{"num_deleted":"0","num_feature":"5000","num_nodes":"27","size_leaf_vector":"1"}},{"base_weights":[6.4037263E-1,8.504189E-1,-3.0388674E-1,1.4863288E-1,6.600733E-1,-4.4481412E-1,8.920209E-1,5.049372E-1,1.4491158E0,-5.2003115E-1,8.309371E-1,-3.7258267E-2,1.2466599E-1,6.623829E-1,-2.1069969E-1,4.7367766E-2,1.4704375E-1,8.519912E-2,-5.853431E-1,1.3516751E-2,1.06286086E-1,8.5659397E-1,9.4845966E-2,-3.4764612E-1,8.9944947E-1,3.919445E-2,-6.1980344E-2,9.452783E-1,2.2101907E-2,1.349139E-1,-2.930376E-2,-4.5814708E-1,1.0709541E-1,1.1733164E-1,9.538358E-3,4.5155492E-1,1.090289E0,1.0308393E-1,-2.3426898E-1,-1.6776998E-1,1.2402352E-1,4.2162445E-1,-5.4446334E-1,6.65678E-2,-3.9057683E-2,1.1998465E-1,2.7610496E-2,-4.6945777E-2,5.157519E-2,-3.2538086E-2,9.82077E-2,-3.23735E-2,8.9546055E-2,-5.774645E-2,1.7864669E-2],"categories":[],"categories_nodes":[],"categories_segments":[],"categories_sizes":[],"default_left":[1,0,1,0,1,1,0,1,0,0,0,0,0,1,1,0,0,0,0,0,0,1,0,1,1,0,0,1,0,0,1,0,0,0,0,1,1,0,0,1,0,0,1,0,0,0,0,0,0,0,0,0,0,0,0],"id":15,"left_children":[1,3,5,-1,7,9,11,13,15,17,19,-1,-1,21,23,-1,-1,-1,25,-1,-1,27,29,31,33,-1,-1,35,37,-1,39,41,-1,-1,-1,43,45,-1,47,49,-1,51,53,-1,-1,-1,-1,-1,-1,-1,-1,-1,-1,-1,-1],"loss_changes":[7.204477E1,3.4888855E1,1.1620945E1,0E0,2.7406624E1,6.213072E0,3.762323E0,2.1957363E1,7.790375E-2,5.6517363E0,4.597025E-1,0E0,0E0,1.7439507E1,5.736815E0,0E0,0E0,0E0,2.111538E0,0E0,0E0,8.734581E0,6.5255537E0,5.5822897E0,8.122103E-1,0E0,0E0,7.162491E0,3.4454305E0,0E0,7.0425706E0,2.5710692E0,0E0,0E0,0E0,4.944774E0,6.9775543E0,0E0,2.1283746E0,6.8322678E0,0E0,1.4619138E0,7.8364754E-1,0E0,0E0,0E0,0E0,0E0,0E0,0E0,0E0,0E0,0E0,0E0,0E0],"parents":[2147483647,0,0,1,1,2,2,4,4,5,5,6,6,7,7,8,8,9,9,10,10,13,13,14,14,18,18,21,21,22,22,23,23,24,24,27,27,28,28,30,30,31,31,35,35,36,36,38,38,39,39,41,41,42,42],"right_children":[2,4,6,-1,8,10,12,14,16,18,20,-1,-1,22,24,-1,-1,-1,26,-1,-1,28,30,32,34,-1,-1,36,38,-1,40,42,-1,-1,-1,44,46,-1,48,50,-1,52,54,-1,-1,-1,-1,-1,-1,-1,-1,-1,-1,-1,-1],"split_conditions":[4.287132E-2,1.8887617E-1,3.0818298E-2,1.4863288E-1,2.012582E-2,6.1023127E-2,6.141784E-2,2.8546331E-2,1.3140348E-1,1.16101585E-1,8.5662216E-2,-3.7258267E-2,1.2466599E-1,9.346745E-2,2.856952E-2,4.7367766E-2,1.4704375E-1,8.519912E-2,9.115525E-2,1.3516751E-2,1.06286086E-1,6.404791E-2,1.1495493E-1,7.841982E-2,4.10237E-2,3.919445E-2,-6.1980344E-2,7.3892064E-2,1.385072E-1,1.349139E-1,6.9879614E-2,7.4048124E-2,1.0709541E-1,1.1733164E-1,9.538358E-3,7.57562E-2,5.8358442E-2,1.0308393E-1,2.0763731E-1,5.344385E-2,1.2402352E-1,7.763574E-2,2.5106224E-1,6.65678E-2,-3.9057683E-2,1.1998465E-1,2.7610496E-2,-4.6945777E-2,5.157519E-2,-3.2538086E-2,9.82077E-2,-3.23735E-2,8.9546055E-2,-5.774645E-2,1.7864669E-2],"split_indices":[1041,3934,63,0,3234,1218,2415,1288,581,3234,148,0,0,3632,488,0,0,0,3339,0,0,4386,1776,1619,866,0,0,48,2445,0,4652,113,0,0,0,4154,2004,0,48,298,0,186,747,0,0,0,0,0,0,0,0,0,0,0,0],"split_type":[0,0,0,0,0,0,0,0,0,0,0,0,0,0,0,0,0,0,0,0,0,0,0,0,0,0,0,0,0,0,0,0,0,0,0,0,0,0,0,0,0,0,0,0,0,0,0,0,0,0,0,0,0,0,0],"sum_hessian":[3.6093912E2,2.953412E2,6.559795E1,6.646966E1,2.2887152E2,5.924455E1,6.353405E0,1.9263658E2,3.623494E1,5.6505417E1,2.7391307E0,1.3804119E0,4.972993E0,1.5795882E2,3.467776E1,1.2717133E0,3.4963226E1,2.0202677E0,5.448515E1,1.080487E0,1.6586437E0,1.17307045E2,4.065177E1,3.148114E1,3.1966214E0,1.502441E0,5.2982708E1,1.05918015E2,1.1389026E1,2.772634E0,3.787914E1,2.9834263E1,1.6468779E0,2.041912E0,1.1547095E0,2.498037E1,8.0937645E1,1.6957808E0,9.693245E0,3.4936527E1,2.9426115E0,2.3184998E0,2.7515762E1,2.0083426E1,4.8969436E0,7.0920784E1,1.0016861E1,7.664053E0,2.029192E0,3.13556E1,3.5809267E0,1.0241917E0,1.2943081E0,2.6507437E1,1.0083266E0],"tree_param":{"num_deleted":"0","num_feature":"5000","num_nodes":"55","size_leaf_vector":"1"}},{"base_weights":[-1.5675387E-1,-3.390714E-1,1.554827E0,-3.8898754E-1,1.0342547E0,1.6875639E0,-3.3535063E-2,1.2378408E-1,-4.1589507E-1,-3.676057E-2,1.4637947E0,1.8268691E-1,1.1252649E-3,-4.4347727E-1,1.2371712E-1,1.5245895E-2,1.7303352E-1,-4.802762E-1,5.907475E-1,-4.9982068E-1,9.411384E-2,1.4838516E0,-4.410345E-2,-5.150115E-1,1.04343586E-1,1.694521E-2,1.8924533E-1,-5.3046674E-2,8.413955E-2],"categories":[],"categories_nodes":[],"categories_segments":[],"categories_sizes":[],"default_left":[1,1,1,0,0,1,0,0,1,0,0,0,0,1,0,0,0,1,0,1,0,1,0,1,0,0,0,0,0],"id":16,"left_children":[1,3,5,7,9,11,-1,-1,13,-1,15,-1,-1,17,-1,-1,-1,19,21,23,-1,25,-1,27,-1,-1,-1,-1,-1],"loss_changes":[7.264485E1,1.4776226E1,6.192745E0,9.40329E0,5.1309147E0,4.911602E0,0E0,0E0,9.690453E0,0E0,1.8470049E0,0E0,0E0,7.8171616E0,0E0,0E0,0E0,5.795849E0,7.3347926E0,4.9857025E0,0E0,1.8893661E0,0E0,4.3994102E0,0E0,0E0,0E0,0E0,0E0],"parents":[2147483647,0,0,1,1,2,2,3,3,4,4,5,5,8,8,10,10,13,13,17,17,18,18,19,19,21,21,23,23],"right_children":[2,4,6,8,10,12,-1,-1,14,-1,16,-1,-1,18,-1,-1,-1,20,22,24,-1,26,-1,28,-1,-1,-1,-1,-1],"split_conditions":[5.3502783E-2,5.8687903E-2,2.6006604E-2,1.9868754E-1,1.635395E-1,7.556084E-2,-3.3535063E-2,1.2378408E-1,9.542293E-2,-3.676057E-2,1.16408095E-1,1.8268691E-1,1.1252649E-3,4.254493E-2,1.2371712E-1,1.5245895E-2,1.7303352E-1,6.3588366E-2,6.6599965E-2,7.884075E-2,9.411384E-2,4.3215487E-2,-4.410345E-2,1.1516733E-1,1.04343586E-1,1.694521E-2,1.8924533E-1,-5.3046674E-2,8.413955E-2],"split_indices":[1554,974,4838,4111,1251,4273,0,0,265,0,1596,0,0,3089,0,0,0,4638,3438,4495,0,3824,0,4723,0,0,0,0,0],"split_type":[0,0,0,0,0,0,0,0,0,0,0,0,0,0,0,0,0,0,0,0,0,0,0,0,0,0,0,0,0],"sum_hessian":[2.3010841E2,2.0868155E2,2.1426855E1,2.0205426E2,6.6272926E0,2.0121056E1,1.305799E0,2.5553327E0,1.9949893E2,1.5881956E0,5.039097E0,1.8494324E1,1.6267331E0,1.9694453E2,2.554389E0,1.1167688E0,3.9223282E0,1.90695E2,6.249534E0,1.8874808E2,1.946928E0,3.1150348E0,3.1344993E0,1.8756807E2,1.1800125E0,1.0742085E0,2.0408263E0,1.8605699E2,1.5110686E0],"tree_param":{"num_deleted":"0","num_feature":"5000","num_nodes":"29","size_leaf_vector":"1"}},{"base_weights":[-2.559419E-1,-3.9789116E-1,1.8906951E-1,-4.9593386E-1,1.4806703E0,-5.2944285E-1,1.222623E0,1.704431E0,-3.0289719E-2,9.7184144E-2,-5.441861E-1,1.7428854E-2,1.5304452E-1,4.911168E-2,1.840794E-1,6.3912086E-2,-5.541368E-1,-5.641426E-1,-1.3178497E-2,-5.6929785E-1,2.0684728E-2,-4.053264E-2,5.856536E-2,-5.744792E-2,2.0370262E-2],"categories":[],"categories_nodes":[],"categories_segments":[],"categories_sizes":[],"default_left":[1,1,0,1,1,0,1,0,0,0,0,0,0,0,0,0,1,1,1,1,0,0,0,0,0],"id":17,"left_children":[1,3,-1,5,7,9,11,13,-1,-1,15,-1,-1,-1,-1,-1,17,19,21,23,-1,-1,-1,-1,-1],"loss_changes":[6.85069E1,3.9299534E1,0E0,1.2150478E1,4.7614E0,4.88105E0,1.0636044E0,6.8463707E-1,0E0,0E0,2.6544533E0,0E0,0E0,0E0,0E0,0E0,1.0440712E0,8.757744E-1,1.306303E0,8.768654E-1,0E0,0E0,0E0,0E0,0E0],"parents":[2147483647,0,0,1,1,3,3,4,4,5,5,6,6,7,7,10,10,16,16,17,17,18,18,19,19],"right_children":[2,4,-1,6,8,10,12,14,-1,-1,16,-1,-1,-1,-1,-1,18,20,22,24,-1,-1,-1,-1,-1],"split_conditions":[1.6638376E-2,2.8946532E-2,1.8906951E-1,1.18890494E-1,4.388317E-2,2.9112527E-1,4.4072054E-2,4.581807E-2,-3.0289719E-2,9.7184144E-2,2.4204458E-1,1.7428854E-2,1.5304452E-1,4.911168E-2,1.840794E-1,6.3912086E-2,9.943903E-2,4.886789E-2,8.183003E-2,3.6511194E-2,2.0684728E-2,-4.053264E-2,5.856536E-2,-5.744792E-2,2.0370262E-2],"split_indices":[4839,4246,0,869,306,3822,2415,4273,0,0,2947,0,0,0,0,0,4710,2662,324,83,0,0,0,0,0],"split_type":[0,0,0,0,0,0,0,0,0,0,0,0,0,0,0,0,0,0,0,0,0,0,0,0,0],"sum_hessian":[2.2135504E2,2.0838963E2,1.2965403E1,1.9875267E2,9.636959E0,1.9563014E2,3.1225333E0,8.602132E0,1.0348265E0,1.2711726E0,1.9435896E2,1.0642544E0,2.058279E0,1.334016E0,7.2681165E0,1.093505E0,1.9326546E2,1.8971358E2,3.5518832E0,1.8871335E2,1.0002333E0,2.3416088E0,1.2102745E0,1.8771194E2,1.001409E0],"tree_param":{"num_deleted":"0","num_feature":"5000","num_nodes":"25","size_leaf_vector":"1"}},{"base_weights":[-1.5153256E-1,-3.1699944E-1,8.538188E-1,-3.9215025E-1,1.5355912E-1,-4.8466254E-2,1.112028E0,-4.4328496E-1,1.3381524E-1,-4.472335E-2,1.3505893E0,-4.8765978E-1,1.3758194E-1,-3.8052816E-2,1.5046545E0,1.3328895E-1,-5.133945E-1,1.6079289E0,2.5700554E-2,-5.292989E-1,1.1690613E-1,1.666971E-1,4.530831E-2,-5.4525113E-1,9.631164E-2,-5.6674402E-2,4.926731E-2],"categories":[],"categories_nodes":[],"categories_segments":[],"categories_sizes":[],"default_left":[1,1,0,1,0,0,0,1,0,0,0,0,0,0,1,0,1,1,0,1,0,0,0,1,0,0,0],"id":18,"left_children":[1,3,5,7,-1,-1,9,11,-1,-1,13,15,-1,-1,17,-1,19,21,-1,23,-1,-1,-1,25,-1,-1,-1],"loss_changes":[3.8682404E1,2.8308002E1,1.1910751E1,1.758467E1,0E0,0E0,1.0977131E1,1.5788601E1,0E0,0E0,7.089405E0,9.284252E0,0E0,0E0,2.503868E0,0E0,5.4813614E0,6.574135E-1,0E0,4.8273277E0,0E0,0E0,0E0,4.28207E0,0E0,0E0,0E0],"parents":[2147483647,0,0,1,1,2,2,3,3,6,6,7,7,10,10,11,11,14,14,16,16,17,17,19,19,23,23],"right_children":[2,4,6,8,-1,-1,10,12,-1,-1,14,16,-1,-1,18,-1,20,22,-1,24,-1,-1,-1,26,-1,-1,-1],"split_conditions":[7.710362E-2,1.0515251E-1,3.6346754E-1,1.3677907E-1,1.5355912E-1,-4.8466254E-2,1.7984061E-1,1.0895776E-1,1.3381524E-1,-4.472335E-2,2.4692003E-2,5.8770263E-1,1.3758194E-1,-3.8052816E-2,1.0642449E-1,1.3328895E-1,2.1836624E-1,6.215143E-2,2.5700554E-2,1.17412664E-1,1.1690613E-1,1.666971E-1,4.530831E-2,8.719628E-2,9.631164E-2,-5.6674402E-2,4.926731E-2],"split_indices":[1336,4091,1041,3221,0,0,166,3120,0,0,4602,1489,0,0,1148,0,1704,321,0,3414,0,0,0,2519,0,0,0],"split_type":[0,0,0,0,0,0,0,0,0,0,0,0,0,0,0,0,0,0,0,0,0,0,0,0,0,0,0],"sum_hessian":[2.299059E2,1.9800217E2,3.1903723E1,1.9104088E2,6.9613E0,5.0174913E0,2.688623E1,1.8627966E2,4.7612114E0,3.451588E0,2.3434643E1,1.825583E2,3.7213628E0,1.7950516E0,2.1639591E1,1.8366252E0,1.8072166E2,1.9718613E1,1.9209785E0,1.7970828E2,1.0133941E0,1.8337633E1,1.3809797E0,1.7843565E2,1.2726245E0,1.7526039E2,3.1752555E0],"tree_param":{"num_deleted":"0","num_feature":"5000","num_nodes":"27","size_leaf_vector":"1"}},{"base_weights":[-2.0080584E-1,-2.7502412E-1,1.3392938E0,-3.5041973E-1,1.1095124E0,7.1076523E-3,1.5156393E0,-3.816041E-1,1.1336348E0,1.4632003E0,-3.8270187E-2,1.6334035E-1,4.8077345E-2,-4.1268954E-1,7.332295E-1,1.6559099E-1,5.835768E-3,1.6386922E-1,1.2849264E-2,-4.319765E-1,1.029675E-1,1.5075304E-1,-1.4198987E-1,-4.510366E-1,7.817879E-1,2.000462E-2,-3.5252556E-2,-4.7046852E-1,7.6397645E-1,1.5865227E-2,1.02013074E-1,-4.8587155E-2,9.565989E-2,1.1590862E-1,9.055235E-3],"categories":[],"categories_nodes":[],"categories_segments":[],"categories_sizes":[],"default_left":[1,1,0,1,1,0,1,1,0,1,0,0,0,1,0,0,0,0,0,1,0,0,0,1,1,0,0,1,0,0,0,0,0,0,0],"id":19,"left_children":[1,3,5,7,9,-1,11,13,15,17,-1,-1,-1,19,21,-1,-1,-1,-1,23,-1,-1,25,27,29,-1,-1,31,33,-1,-1,-1,-1,-1,-1],"loss_changes":[2.5458029E1,2.2335178E1,2.187292E0,9.694992E0,6.4169464E0,0E0,3.0665398E-1,7.121687E0,2.3579907E0,1.9393005E0,0E0,0E0,0E0,5.7880325E0,4.075453E0,0E0,0E0,0E0,0E0,4.7537727E0,0E0,0E0,3.2893863E-1,4.796589E0,3.29324E-1,0E0,0E0,4.54438E0,7.836007E-1,0E0,0E0,0E0,0E0,0E0,0E0],"parents":[2147483647,0,0,1,1,2,2,3,3,4,4,6,6,7,7,8,8,9,9,13,13,14,14,19,19,22,22,23,23,24,24,27,27,28,28],"right_children":[2,4,6,8,10,-1,12,14,16,18,-1,-1,-1,20,22,-1,-1,-1,-1,24,-1,-1,26,28,30,-1,-1,32,34,-1,-1,-1,-1,-1,-1],"split_conditions":[2.9478988E-2,5.8555655E-2,5.2170917E-2,9.708413E-2,2.562248E-2,7.1076523E-3,2.6408592E-2,5.6931753E-2,1.8479522E-1,1.05545655E-1,-3.8270187E-2,1.6334035E-1,4.8077345E-2,9.1540135E-2,4.4466432E-2,1.6559099E-1,5.835768E-3,1.6386922E-1,1.2849264E-2,1.2697656E-1,1.029675E-1,1.5075304E-1,4.7923937E-2,7.487559E-2,5.1955264E-2,2.000462E-2,-3.5252556E-2,1.1949006E-1,4.0096004E-2,1.5865227E-2,1.02013074E-1,-4.8587155E-2,9.565989E-2,1.1590862E-1,9.055235E-3],"split_indices":[3407,451,1902,3754,4250,0,4013,4278,866,3795,0,0,0,2150,3824,0,0,0,0,1998,0,0,2266,1093,48,0,0,4273,2149,0,0,0,0,0,0],"split_type":[0,0,0,0,0,0,0,0,0,0,0,0,0,0,0,0,0,0,0,0,0,0,0,0,0,0,0,0,0,0,0,0,0,0,0],"sum_hessian":[2.185005E2,2.092386E2,9.261904E0,1.9914117E2,1.0097425E1,1.301928E0,7.9599757E0,1.9577032E2,3.370847E0,8.178406E0,1.9190197E0,6.6274257E0,1.3325502E0,1.9107239E2,4.697942E0,1.9053912E0,1.4654558E0,7.0267515E0,1.1516542E0,1.8924239E2,1.8300003E0,2.109352E0,2.58859E0,1.8693529E2,2.3071008E0,1.0052633E0,1.5833266E0,1.845958E2,2.3394876E0,1.0991291E0,1.2079716E0,1.8327715E2,1.3186615E0,1.019907E0,1.3195804E0],"tree_param":{"num_deleted":"0","num_feature":"5000","num_nodes":"35","size_leaf_vector":"1"}},{"base_weights":[-1.8837559E-1,-2.9234242E-1,9.2654425E-1,-3.258065E-1,1.4405523E-1,-1.2319322E-1,1.4890164E0,1.5954977E-1,-3.5674933E-1,-4.9341448E-2,1.157695E-1,1.642864E-1,7.7401246E-3,-3.921343E-1,1.2383887E0,-4.2371258E-1,8.9799714E-1,1.5339462E-1,1.5734194E-2,-4.4745657E-1,1.1060665E-1,1.516216E-1,-3.493416E-2,1.13316216E-1,-4.6214187E-1,-4.77153E-2,1.0912639E-1],"categories":[],"categories_nodes":[],"categories_segments":[],"categories_sizes":[],"default_left":[1,1,0,0,0,1,1,0,1,0,0,0,0,1,0,1,1,0,0,0,0,0,0,0,1,0,0],"id":20,"left_children":[1,3,5,7,-1,9,11,-1,13,-1,-1,-1,-1,15,17,19,21,-1,-1,23,-1,-1,-1,-1,25,-1,-1],"loss_changes":[2.6327969E1,1.243734E1,1.1646469E1,1.2654715E1,0E0,4.221158E0,2.634695E0,0E0,1.1824192E1,0E0,0E0,0E0,0E0,8.417791E0,1.2283878E0,7.5142746E0,4.41157E0,0E0,0E0,4.957302E0,0E0,0E0,0E0,0E0,4.950218E0,0E0,0E0],"parents":[2147483647,0,0,1,1,2,2,3,3,5,5,6,6,8,8,13,13,14,14,15,15,16,16,19,19,24,24],"right_children":[2,4,6,8,-1,10,12,-1,14,-1,-1,-1,-1,16,18,20,22,-1,-1,24,-1,-1,-1,-1,26,-1,-1],"split_conditions":[2.0451865E-1,1.7183161E-1,2.8531295E-1,4.7090757E-1,1.4405523E-1,4.9310487E-2,1.0793633E-1,1.5954977E-1,6.739468E-2,-4.9341448E-2,1.157695E-1,1.642864E-1,7.7401246E-3,3.299449E-2,2.0402463E-1,3.308341E-2,3.198793E-2,1.5339462E-1,1.5734194E-2,1.01785995E-1,1.1060665E-1,1.516216E-1,-3.493416E-2,1.13316216E-1,8.833481E-2,-4.77153E-2,1.0912639E-1],"split_indices":[1041,167,4560,2264,0,2184,1902,0,3513,0,0,0,0,4914,209,100,2673,0,0,2255,0,0,0,0,756,0,0],"split_type":[0,0,0,0,0,0,0,0,0,0,0,0,0,0,0,0,0,0,0,0,0,0,0,0,0,0,0],"sum_hessian":[2.2379546E2,2.0538133E2,1.8414122E1,2.0228694E2,3.0943937E0,6.696841E0,1.1717281E1,2.4048045E0,1.9988214E2,5.6721725E0,1.0246681E0,1.0418035E1,1.2992473E0,1.9628218E2,3.5999622E0,1.9224814E2,4.0340424E0,2.4980512E0,1.101911E0,1.9000652E2,2.2416232E0,2.553092E0,1.4809502E0,1.0479673E0,1.8895854E2,1.8783624E2,1.1222937E0],"tree_param":{"num_deleted":"0","num_feature":"5000","num_nodes":"27","size_leaf_vector":"1"}},{"base_weights":[5.8886385E-1,7.63464E-1,-2.8412536E-1,1.3094474E-1,5.8012474E-1,1.1632019E-1,-4.0363535E-1,1.3053808E-1,4.3000925E-1,-4.9321604E-1,9.535413E-2,2.658804E-1,1.0307947E0,-5.747916E-1,5.5757076E-1,-3.3172566E-1,4.2876872E-1,1.2114528E0,-5.1446725E-2,-6.114322E-2,5.775544E-2,1.0808498E-1,-3.7309203E-2,-5.079755E-1,5.381778E-1,5.330638E-1,-4.6583134E-1,1.272413E0,-6.9643073E-3,-5.7330644E-1,5.7053484E-2,1.00104146E-1,-4.112009E-2,6.556484E-1,-2.5582665E-1,4.3876987E-2,-6.0163237E-2,1.3175902E0,2.8808506E-3,-6.076156E-2,1.4943096E-2,7.293901E-2,-4.0879004E-2,4.898546E-2,-5.389412E-2,1.3658628E-1,2.954191E-3],"categories":[],"categories_nodes":[],"categories_segments":[],"categories_sizes":[],"default_left":[1,0,0,0,0,0,1,0,1,1,0,0,1,1,0,1,1,1,0,0,0,0,0,1,1,1,0,1,0,1,0,0,0,1,0,0,0,1,0,0,0,0,0,0,0,0,0],"id":21,"left_children":[1,3,5,-1,7,-1,9,-1,11,13,-1,15,17,19,21,23,25,27,-1,-1,-1,-1,-1,29,31,33,35,37,-1,39,-1,-1,-1,41,43,-1,-1,45,-1,-1,-1,-1,-1,-1,-1,-1,-1],"loss_changes":[5.7175003E1,3.0438782E1,1.1368313E1,0E0,2.503653E1,0E0,7.6367826E0,0E0,1.908133E1,5.1168947E0,0E0,1.5280945E1,1.2284103E1,2.566309E0,2.6135552E0,5.466963E0,1.1691404E1,3.0325508E0,0E0,0E0,0E0,0E0,0E0,2.3479977E0,3.1328037E0,1.0834965E1,1.9026284E0,1.9866371E0,0E0,7.737465E-1,0E0,0E0,0E0,7.814045E0,3.5477462E0,0E0,0E0,2.1203384E0,0E0,0E0,0E0,0E0,0E0,0E0,0E0,0E0,0E0],"parents":[2147483647,0,0,1,1,2,2,4,4,6,6,8,8,9,9,11,11,12,12,13,13,14,14,15,15,16,16,17,17,23,23,24,24,25,25,26,26,27,27,29,29,33,33,34,34,37,37],"right_children":[2,4,6,-1,8,-1,10,-1,12,14,-1,16,18,20,22,24,26,28,-1,-1,-1,-1,-1,30,32,34,36,38,-1,40,-1,-1,-1,42,44,-1,-1,46,-1,-1,-1,-1,-1,-1,-1,-1,-1],"split_conditions":[4.287132E-2,3.2719466E-1,7.803226E-2,1.3094474E-1,4.0399665E-1,1.1632019E-1,6.441176E-2,1.3053808E-1,1.1233547E-1,6.1023127E-2,9.535413E-2,5.9119552E-2,5.1657733E-2,2.400973E-2,7.329329E-2,3.2747217E-2,7.415651E-2,3.548031E-2,-5.1446725E-2,-6.114322E-2,5.775544E-2,1.0808498E-1,-3.7309203E-2,7.86401E-2,4.189819E-2,5.1657733E-2,1.09920196E-1,8.797375E-2,-6.9643073E-3,8.858576E-2,5.7053484E-2,1.00104146E-1,-4.112009E-2,6.966696E-2,7.0265636E-2,4.3876987E-2,-6.0163237E-2,9.3732215E-2,2.8808506E-3,-6.076156E-2,1.4943096E-2,7.293901E-2,-4.0879004E-2,4.898546E-2,-5.389412E-2,1.3658628E-1,2.954191E-3],"split_indices":[1041,3934,3934,0,4262,0,529,0,4932,1218,0,2415,944,2581,944,488,2351,2545,0,0,0,0,0,3044,4383,944,48,4697,0,3768,0,0,0,1336,4796,0,0,1400,0,0,0,0,0,0,0,0,0],"split_type":[0,0,0,0,0,0,0,0,0,0,0,0,0,0,0,0,0,0,0,0,0,0,0,0,0,0,0,0,0,0,0,0,0,0,0,0,0,0,0,0,0,0,0,0,0,0,0],"sum_hessian":[3.7268185E2,3.1067212E2,6.200976E1,7.6553604E1,2.341185E2,4.0636606E0,5.7946102E1,3.882871E1,1.952898E2,5.495535E1,2.9907515E0,1.545192E2,4.0770603E1,5.1416714E1,3.5386355E0,3.287405E1,1.21645134E2,3.669641E1,4.074193E0,5.028716E1,1.1295552E0,2.161771E0,1.3768644E0,2.7681583E1,5.192469E0,1.09306046E2,1.233909E1,3.5036022E1,1.6603911E0,2.6542212E1,1.1393714E0,3.4540508E0,1.7384183E0,9.4751625E1,1.45544195E1,1.3193856E0,1.1019705E1,3.3750454E1,1.2855678E0,2.5491394E1,1.0508178E0,8.890713E1,5.8445015E0,3.804281E0,1.0750138E1,3.247304E1,1.277411E0],"tree_param":{"num_deleted":"0","num_feature":"5000","num_nodes":"47","size_leaf_vector":"1"}},{"base_weights":[-1.6138813E-1,-3.4147602E-1,1.3408834E0,-3.8034475E-1,1.2531612E0,1.4525188E0,-3.3874746E-2,-4.0355822E-1,1.3690948E-1,1.7284462E-2,1.4815158E-1,1.547641E-1,-2.9815307E-2,-4.2220247E-1,1.2390166E-1,-4.4126403E-1,1.0210198E-1,-4.6030226E-1,1.04529954E-1,-4.8404682E-1,7.809531E-1,-4.9936645E-2,1.0991724E-1,1.3507408E-1,-3.269786E-2],"categories":[],"categories_nodes":[],"categories_segments":[],"categories_sizes":[],"default_left":[1,1,1,1,0,1,0,1,0,0,0,0,0,1,0,1,0,1,0,1,0,0,0,0,0],"id":22,"left_children":[1,3,5,7,9,11,-1,13,-1,-1,-1,-1,-1,15,-1,17,-1,19,-1,21,23,-1,-1,-1,-1],"loss_changes":[6.142136E1,1.2997826E1,5.053009E0,8.592388E0,9.8720217E-1,4.2911606E0,0E0,6.5302734E0,0E0,0E0,0E0,0E0,0E0,5.806736E0,0E0,5.939373E0,0E0,6.010765E0,0E0,5.1122246E0,2.9478378E0,0E0,0E0,0E0,0E0],"parents":[2147483647,0,0,1,1,2,2,3,3,4,4,5,5,7,7,13,13,15,15,17,17,19,19,20,20],"right_children":[2,4,6,8,10,12,-1,14,-1,-1,-1,-1,-1,16,-1,18,-1,20,-1,22,24,-1,-1,-1,-1],"split_conditions":[5.4140747E-2,6.499195E-2,7.556084E-2,4.863603E-2,4.9760785E-2,2.6006604E-2,-3.3874746E-2,1.4132646E-1,1.3690948E-1,1.7284462E-2,1.4815158E-1,1.547641E-1,-2.9815307E-2,1.04187846E-1,1.2390166E-1,8.044269E-2,1.0210198E-1,5.484175E-2,1.04529954E-1,8.983155E-2,8.797726E-2,-4.9936645E-2,1.0991724E-1,1.3507408E-1,-3.269786E-2],"split_indices":[1554,1476,4273,4443,3824,4838,0,265,0,0,0,0,0,2964,0,4111,0,4638,0,269,2830,0,0,0,0],"split_type":[0,0,0,0,0,0,0,0,0,0,0,0,0,0,0,0,0,0,0,0,0,0,0,0,0],"sum_hessian":[2.2433923E2,2.0101486E2,2.3324377E1,1.9697514E2,4.0397177E0,2.1997541E1,1.326835E0,1.9515494E2,1.8202058E0,1.0114744E0,3.028243E0,2.0973906E1,1.0236368E0,1.936993E2,1.455645E0,1.9185953E2,1.8397602E0,1.9011511E2,1.744422E0,1.8714516E2,2.9699516E0,1.8602968E2,1.1154817E0,1.8165699E0,1.1533817E0],"tree_param":{"num_deleted":"0","num_feature":"5000","num_nodes":"25","size_leaf_vector":"1"}},{"base_weights":[-2.4247581E-1,-3.860766E-1,1.6116372E-1,-4.9520585E-1,1.2557452E0,1.0640546E-1,-5.1448125E-1,1.5021336E0,-8.0134375E-3,-5.2934366E-1,1.1793466E-1,4.5293044E-2,1.6034392E-1,-5.443725E-1,8.947442E-2,-5.5442464E-1,5.9809674E-2,-5.6446797E-1,4.444846E-2,-5.696572E-2,2.051931E-2],"categories":[],"categories_nodes":[],"categories_segments":[],"categories_sizes":[],"default_left":[1,1,0,0,1,0,1,0,0,1,0,0,0,1,0,1,0,1,0,0,0],"id":23,"left_children":[1,3,-1,5,7,-1,9,11,-1,13,-1,-1,-1,15,-1,17,-1,19,-1,-1,-1],"loss_changes":[6.016895E1,3.7957153E1,0E0,6.4415245E0,4.4881783E0,0E0,5.5178795E0,4.6998024E-1,0E0,4.626011E0,0E0,0E0,0E0,2.5364494E0,0E0,2.165413E0,0E0,8.7324905E-1,0E0,0E0,0E0],"parents":[2147483647,0,0,1,1,3,3,4,4,6,6,7,7,9,9,13,13,15,15,17,17],"right_children":[2,4,-1,6,8,-1,10,12,-1,14,-1,-1,-1,16,-1,18,-1,20,-1,-1,-1],"split_conditions":[1.6638376E-2,2.8946532E-2,1.6116372E-1,2.9112527E-1,3.266263E-2,1.0640546E-1,1.291202E-1,3.0136727E-2,-8.0134375E-3,7.633508E-2,1.1793466E-1,4.5293044E-2,1.6034392E-1,3.387191E-2,8.947442E-2,1.3650654E-1,5.9809674E-2,1.3781741E-1,4.444846E-2,-5.696572E-2,2.051931E-2],"split_indices":[4839,4246,0,3822,2656,0,3100,2651,0,2564,0,0,0,2947,0,869,0,307,0,0,0],"split_type":[0,0,0,0,0,0,0,0,0,0,0,0,0,0,0,0,0,0,0,0,0],"sum_hessian":[2.2264792E2,2.0737828E2,1.5269648E1,1.9510814E2,1.22701435E1,1.720582E0,1.9338756E2,1.0254382E1,2.0157619E0,1.9238695E2,1.0006089E0,1.3846579E0,8.869724E0,1.9098912E2,1.3978254E0,1.8983357E2,1.1555526E0,1.8837451E2,1.4590577E0,1.8737106E2,1.0034478E0],"tree_param":{"num_deleted":"0","num_feature":"5000","num_nodes":"21","size_leaf_vector":"1"}},{"base_weights":[-1.1042991E-1,-3.194739E-1,7.128865E-1,-4.1271496E-1,1.2820743E-1,-5.1472414E-2,1.0172644E0,-4.647053E-1,1.2439533E-1,-4.6186943E-2,1.2120558E0,-5.087117E-1,1.0059084E0,-3.6309186E-2,1.31108E0,-5.436925E-1,7.619758E-1,-3.0610973E-2,1.4173967E-1,-3.60538E-2,1.41557E0,-5.6742903E-2,1.1170139E-1,-3.5814337E-2,1.4531066E-1,1.4750868E0,8.095789E-3,1.508328E-1,4.5757502E-2],"categories":[],"categories_nodes":[],"categories_segments":[],"categories_sizes":[],"default_left":[1,1,0,1,0,0,0,1,0,0,0,1,0,0,0,1,0,0,0,0,1,0,0,0,0,1,0,0,0],"id":24,"left_children":[1,3,5,7,-1,-1,9,11,-1,-1,13,15,17,-1,19,21,23,-1,-1,-1,25,-1,-1,-1,-1,27,-1,-1,-1],"loss_changes":[3.907746E1,2.7514536E1,1.7718277E1,1.5351574E1,0E0,0E0,1.1280975E1,1.13215065E1,0E0,0E0,5.6476746E0,7.6526604E0,3.2352738E0,0E0,5.997017E0,6.904064E0,4.2202744E0,0E0,0E0,0E0,2.2450256E0,0E0,0E0,0E0,0E0,2.7169418E-1,0E0,0E0,0E0],"parents":[2147483647,0,0,1,1,2,2,3,3,6,6,7,7,10,10,11,11,12,12,14,14,15,15,16,16,20,20,25,25],"right_children":[2,4,6,8,-1,-1,10,12,-1,-1,14,16,18,-1,20,22,24,-1,-1,-1,26,-1,-1,-1,-1,28,-1,-1,-1],"split_conditions":[5.4159023E-2,1.2181634E-1,1.6836149E-1,1.0971821E-1,1.2820743E-1,-5.1472414E-2,3.606584E-1,1.0001291E-1,1.2439533E-1,-4.6186943E-2,1.7789951E-1,8.557409E-2,2.5422075E-1,-3.6309186E-2,1.6781795E-1,1.2913372E-1,1.3346395E-1,-3.0610973E-2,1.4173967E-1,-3.60538E-2,9.409454E-2,-5.6742903E-2,1.1170139E-1,-3.5814337E-2,1.4531066E-1,7.353392E-2,8.095789E-3,1.508328E-1,4.5757502E-2],"split_indices":[3768,1263,944,3120,0,0,866,998,0,0,3223,1538,1041,0,747,2448,4154,0,0,0,3769,0,0,0,0,2715,0,0,0],"split_type":[0,0,0,0,0,0,0,0,0,0,0,0,0,0,0,0,0,0,0,0,0,0,0,0,0,0,0,0,0],"sum_hessian":[2.2472694E2,1.7970975E2,4.5017197E1,1.7052425E2,9.185508E0,8.806784E0,3.6210415E1,1.660332E2,4.491035E0,4.0541854E0,3.2156227E1,1.6184428E2,4.18892E0,1.744251E0,3.0411978E1,1.5806503E2,3.7792542E0,1.0612494E0,3.1276708E0,1.6450021E0,2.8766975E1,1.564867E2,1.5783447E0,1.6259193E0,2.1533349E0,2.7438122E1,1.328853E0,2.6102995E1,1.335127E0],"tree_param":{"num_deleted":"0","num_feature":"5000","num_nodes":"29","size_leaf_vector":"1"}},{"base_weights":[-2.1903665E-1,-2.838743E-1,1.1567302E0,-3.560842E-1,8.8529235E-1,2.2699793E-3,1.3393793E0,1.3567398E-1,-3.7874526E-1,1.2307402E0,-4.1034143E-2,4.4039067E-2,1.4508535E-1,-4.0993437E-1,9.2028093E-1,1.4302672E-1,2.864993E-3,-4.286992E-1,8.347957E-1,-3.326596E-2,1.4961067E-1,-4.4800615E-1,7.3121893E-1,1.1026231E-1,1.6500575E-2,-4.6739894E-1,7.2616285E-1,-3.3921827E-2,1.6828685E-1,-4.8253905E-2,7.060823E-2,1.3518089E-1,-3.0398002E-2],"categories":[],"categories_nodes":[],"categories_segments":[],"categories_sizes":[],"default_left":[1,1,0,0,1,0,0,0,1,1,0,0,0,1,1,0,0,1,1,0,0,1,0,0,0,1,0,0,0,0,0,0,0],"id":25,"left_children":[1,3,5,7,9,-1,11,-1,13,15,-1,-1,-1,17,19,-1,-1,21,23,-1,-1,25,27,-1,-1,29,31,-1,-1,-1,-1,-1,-1],"loss_changes":[1.9864307E1,1.8040785E1,2.0520897E0,8.216784E0,6.099595E0,0E0,2.2711849E-1,0E0,8.344456E0,2.3859653E0,0E0,0E0,0E0,4.8594246E0,4.046531E0,0E0,0E0,4.594307E0,3.9238715E-1,0E0,0E0,4.620842E0,4.1355367E0,0E0,0E0,3.6378326E0,2.6322832E0,0E0,0E0,0E0,0E0,0E0,0E0],"parents":[2147483647,0,0,1,1,2,2,3,3,4,4,6,6,8,8,9,9,13,13,14,14,17,17,18,18,21,21,22,22,25,25,26,26],"right_children":[2,4,6,8,10,-1,12,-1,14,16,-1,-1,-1,18,20,-1,-1,22,24,-1,-1,26,28,-1,-1,30,32,-1,-1,-1,-1,-1,-1],"split_conditions":[2.9478988E-2,5.8555655E-2,4.2936254E-2,7.6157683E-1,2.562248E-2,2.2699793E-3,4.860677E-2,1.3567398E-1,7.487559E-2,5.701566E-2,-4.1034143E-2,4.4039067E-2,1.4508535E-1,9.1540135E-2,2.2178212E-2,1.4302672E-1,2.864993E-3,5.4977044E-2,9.360638E-2,-3.326596E-2,1.4961067E-1,7.603203E-2,8.459624E-2,1.1026231E-1,1.6500575E-2,1.3888131E-1,6.751612E-2,-3.3921827E-2,1.6828685E-1,-4.8253905E-2,7.060823E-2,1.3518089E-1,-3.0398002E-2],"split_indices":[3407,451,3031,3663,4250,0,3163,0,3848,944,0,0,0,2150,2266,0,0,1997,4383,0,0,4085,2149,0,0,3292,3947,0,0,0,0,0,0],"split_type":[0,0,0,0,0,0,0,0,0,0,0,0,0,0,0,0,0,0,0,0,0,0,0,0,0,0,0,0,0,0,0,0,0],"sum_hessian":[2.1800917E2,2.0895512E2,9.054052E0,1.9745535E2,1.1499769E1,1.4119338E0,7.642119E0,1.8095617E0,1.956458E2,9.118609E0,2.3811593E0,1.389228E0,6.2528906E0,1.9172693E2,3.9188604E0,7.6577363E0,1.4608737E0,1.8952534E2,2.2015853E0,1.3669034E0,2.5519571E0,1.8702603E2,2.4993064E0,1.1110785E0,1.0905067E0,1.8457942E2,2.4466155E0,1.4791131E0,1.0201933E0,1.8280963E2,1.7697935E0,1.3278852E0,1.1187303E0],"tree_param":{"num_deleted":"0","num_feature":"5000","num_nodes":"33","size_leaf_vector":"1"}},{"base_weights":[-1.9081043E-1,-2.9259974E-1,8.051477E-1,-3.4322444E-1,9.824953E-1,-1.0866467E-1,1.2496432E0,1.1991508E0,-3.853634E-1,-3.60676E-2,1.3848297E-1,-4.834256E-2,1.06254354E-1,1.3802515E-1,4.9427752E-3,1.49729E-1,1.2276025E-2,-4.1001648E-1,1.2964569E-1,-4.3050733E-1,1.3313879E-1,-4.4635627E-1,1.1653475E-1,-4.620707E-1,1.0566912E-1,-4.7771744E-2,9.1355026E-2],"categories":[],"categories_nodes":[],"categories_segments":[],"categories_sizes":[],"default_left":[1,1,0,0,0,1,1,0,1,0,0,0,0,0,0,0,0,1,0,1,0,1,0,1,0,0,0],"id":26,"left_children":[1,3,5,7,9,11,13,15,17,-1,-1,-1,-1,-1,-1,-1,-1,19,-1,21,-1,23,-1,25,-1,-1,-1],"loss_changes":[2.1791338E1,1.2837265E1,8.252425E0,1.2615461E1,4.6354814E0,3.7876496E0,2.0516834E0,1.4901152E0,8.109821E0,0E0,0E0,0E0,0E0,0E0,0E0,0E0,0E0,7.0280113E0,0E0,5.0613556E0,0E0,4.7044563E0,0E0,4.2537537E0,0E0,0E0,0E0],"parents":[2147483647,0,0,1,1,2,2,3,3,4,4,5,5,6,6,7,7,8,8,17,17,19,19,21,21,23,23],"right_children":[2,4,6,8,10,12,14,16,18,-1,-1,-1,-1,-1,-1,-1,-1,20,-1,22,-1,24,-1,26,-1,-1,-1],"split_conditions":[2.0451865E-1,1.3716899E-1,1.4265147E-1,5.7141807E-2,9.640652E-2,7.0609994E-2,1.9990206E-1,6.027062E-2,7.660726E-2,-3.60676E-2,1.3848297E-1,-4.834256E-2,1.06254354E-1,1.3802515E-1,4.9427752E-3,1.49729E-1,1.2276025E-2,1.0473548E-1,1.2964569E-1,1.3314427E-1,1.3313879E-1,9.646265E-2,1.1653475E-1,2.0303203E-1,1.0566912E-1,-4.7771744E-2,9.1355026E-2],"split_indices":[1041,464,4560,3071,2868,2180,1126,2045,3513,0,0,0,0,0,0,0,0,756,0,3536,0,1163,0,961,0,0,0],"split_type":[0,0,0,0,0,0,0,0,0,0,0,0,0,0,0,0,0,0,0,0,0,0,0,0,0,0,0],"sum_hessian":[2.1162776E2,1.9264517E2,1.8982584E1,1.8599164E2,6.653544E0,6.4591413E0,1.2523442E1,4.2161074E0,1.8177553E2,1.5574902E0,5.0960536E0,5.338258E0,1.1208833E0,1.1159099E1,1.3643434E0,2.995409E0,1.2206982E0,1.7989473E2,1.8807945E0,1.7854659E2,1.3481505E0,1.7750404E2,1.0425436E0,1.7635283E2,1.1512027E0,1.750149E2,1.3379464E0],"tree_param":{"num_deleted":"0","num_feature":"5000","num_nodes":"27","size_leaf_vector":"1"}},{"base_weights":[5.4928625E-1,6.95593E-1,-3.09581E-1,1.1772057E-1,5.382797E-1,-4.4120836E-1,9.77675E-2,4.0103287E-1,1.17269695E-1,8.6670294E-2,-5.0746435E-1,2.4570253E-1,9.420621E-1,-5.439397E-1,5.6098767E-2,-3.779292E-1,3.805831E-1,1.1121329E0,-3.8442683E-1,3.0895105E-2,-5.816236E-1,-4.8826903E-1,3.9191222E-1,-1.5865497E-1,4.9522313E-1,1.1673373E0,-3.801185E-2,9.710993E-3,-5.1556703E-2,-6.0135256E-2,1.5821008E-2,-5.59082E-1,5.5780955E-2,-3.415458E-2,7.512847E-2,6.075923E-1,-4.614217E-1,5.961481E-1,-2.0038874E-1,1.1882851E0,3.513759E-2,1.5624642E-2,-5.9656788E-2,-4.2268142E-2,1.02376655E-1,7.76753E-2,-6.1457008E-2,7.128149E-2,4.893665E-3,8.8559665E-2,-3.7208963E-2,1.2105135E-1,3.569395E-2],"categories":[],"categories_nodes":[],"categories_segments":[],"categories_sizes":[],"default_left":[1,0,1,0,1,0,0,1,0,0,1,0,1,0,0,1,0,1,0,0,1,1,1,0,1,1,0,0,0,0,0,0,0,0,0,0,0,1,0,1,0,0,0,0,0,0,0,0,0,0,0,0,0],"id":27,"left_children":[1,3,5,-1,7,9,-1,11,-1,-1,13,15,17,19,-1,21,23,25,27,-1,29,31,33,35,37,39,-1,-1,-1,-1,-1,41,-1,-1,-1,43,45,47,49,51,-1,-1,-1,-1,-1,-1,-1,-1,-1,-1,-1,-1,-1],"loss_changes":[4.8383553E1,2.4204895E1,1.0002368E1,0E0,2.1207458E1,4.940403E0,0E0,1.7097504E1,0E0,0E0,2.256177E0,1.3733615E1,1.0724453E1,1.7519093E0,0E0,2.674347E0,8.320774E0,3.7976112E0,4.2454213E-1,0E0,7.8399944E-1,2.2387009E0,1.3686942E0,5.8791037E0,7.855751E0,2.577324E-1,0E0,0E0,0E0,0E0,0E0,7.5987816E-1,0E0,0E0,0E0,3.5484655E0,3.865295E0,6.1249046E0,3.07257E0,2.7194595E-1,0E0,0E0,0E0,0E0,0E0,0E0,0E0,0E0,0E0,0E0,0E0,0E0,0E0],"parents":[2147483647,0,0,1,1,2,2,4,4,5,5,7,7,10,10,11,11,12,12,13,13,15,15,16,16,17,17,18,18,20,20,21,21,22,22,23,23,24,24,25,25,31,31,35,35,36,36,37,37,38,38,39,39],"right_children":[2,4,6,-1,8,10,-1,12,-1,-1,14,16,18,20,-1,22,24,26,28,-1,30,32,34,36,38,40,-1,-1,-1,-1,-1,42,-1,-1,-1,44,46,48,50,52,-1,-1,-1,-1,-1,-1,-1,-1,-1,-1,-1,-1,-1],"split_conditions":[7.517429E-2,3.2719466E-1,4.6738576E-2,1.1772057E-1,1.61119E-2,7.803226E-2,9.77675E-2,5.779959E-2,1.17269695E-1,8.6670294E-2,3.166788E-2,5.9119552E-2,2.0591866E-2,6.709691E-2,5.6098767E-2,8.391239E-2,1.340335E-1,3.548031E-2,5.8358442E-2,3.0895105E-2,1.1994782E-1,7.347151E-2,3.014199E-2,4.3198586E-2,3.498569E-2,7.585017E-2,-3.801185E-2,9.710993E-3,-5.1556703E-2,-6.0135256E-2,1.5821008E-2,2.874571E-2,5.5780955E-2,-3.415458E-2,7.512847E-2,3.578802E-2,5.732928E-2,5.5941947E-2,1.2745972E-1,1.17725186E-1,3.513759E-2,1.5624642E-2,-5.9656788E-2,-4.2268142E-2,1.02376655E-1,7.76753E-2,-6.1457008E-2,7.128149E-2,4.893665E-3,8.8559665E-2,-3.7208963E-2,1.2105135E-1,3.569395E-2],"split_indices":[1041,3934,529,0,4262,3934,0,4932,0,0,302,2415,944,1231,0,488,2351,2545,2004,0,2367,3044,3947,3247,1288,4250,0,0,0,0,0,4602,0,0,0,2435,4059,4738,1251,93,0,0,0,0,0,0,0,0,0,0,0,0,0],"split_type":[0,0,0,0,0,0,0,0,0,0,0,0,0,0,0,0,0,0,0,0,0,0,0,0,0,0,0,0,0,0,0,0,0,0,0,0,0,0,0,0,0,0,0,0,0,0,0,0,0,0,0,0,0],"sum_hessian":[3.823277E2,3.2684094E2,5.548676E1,7.887693E1,2.47964E2,5.0935627E1,4.551133E0,2.0520338E2,4.276062E1,1.8733836E0,4.9062244E1,1.605604E2,4.4642994E1,4.7917328E1,1.1449171E0,2.8230825E1,1.3232957E2,3.9712944E1,4.9300494E0,1.7229826E0,4.6194344E1,2.5011702E1,3.2191234E0,2.3133137E1,1.09196434E2,3.850618E1,1.2067666E0,1.1107938E0,3.8192556E0,4.51768E1,1.0175426E0,2.3861944E1,1.1497581E0,1.074907E0,2.1442163E0,6.266633E0,1.6866503E1,9.548561E1,1.3710828E1,3.7097492E1,1.4086868E0,1.0304362E0,2.2831509E1,1.7985464E0,4.4680867E0,1.4083524E0,1.5458151E1,7.845596E1,1.702964E1,1.3041928E0,1.2406635E1,3.5687202E1,1.4102881E0],"tree_param":{"num_deleted":"0","num_feature":"5000","num_nodes":"53","size_leaf_vector":"1"}},{"base_weights":[-1.2045864E-1,-3.3303934E-1,1.138382E0,-3.8268906E-1,8.545331E-1,-4.294336E-2,1.2898204E0,-4.116547E-1,1.0532099E-1,-3.5154443E-2,1.6556087E-1,-3.1812083E-2,1.3695054E0,-4.3198892E-1,1.1075918E-1,6.4448856E-2,-4.1479066E-2,1.0796637E-2,1.4200128E0,-4.6143642E-1,6.87352E-1,1.4619136E-1,4.003623E-2,-4.8262575E-1,8.49016E-1,-9.3855426E-2,1.2678933E-1,-4.9889666E-1,7.951683E-2,1.1371865E-1,1.5766663E-2,1.6195431E-2,-3.0243719E-2,-5.102042E-2,7.033073E-2],"categories":[],"categories_nodes":[],"categories_segments":[],"categories_sizes":[],"default_left":[1,1,0,1,1,0,0,1,0,0,0,0,0,1,0,0,0,0,1,1,0,0,0,1,0,1,0,1,0,0,0,0,0,0,0],"id":28,"left_children":[1,3,5,7,9,-1,11,13,-1,15,-1,-1,17,19,-1,-1,-1,-1,21,23,25,-1,-1,27,29,31,-1,33,-1,-1,-1,-1,-1,-1,-1],"loss_changes":[5.923231E1,1.1466576E1,8.151489E0,8.004707E0,5.6821003E0,0E0,4.2065926E0,6.0130253E0,0E0,1.4846213E0,0E0,0E0,1.6453972E0,6.1681404E0,0E0,0E0,0E0,0E0,5.7084656E-1,5.2289734E0,2.364763E0,0E0,0E0,3.960926E0,4.431026E-1,2.1130115E-1,0E0,2.6683197E0,0E0,0E0,0E0,0E0,0E0,0E0,0E0],"parents":[2147483647,0,0,1,1,2,2,3,3,4,4,6,6,7,7,9,9,12,12,13,13,18,18,19,19,20,20,23,23,24,24,25,25,27,27],"right_children":[2,4,6,8,10,-1,12,14,-1,16,-1,-1,18,20,-1,-1,-1,-1,22,24,26,-1,-1,28,30,32,-1,34,-1,-1,-1,-1,-1,-1,-1],"split_conditions":[4.594596E-2,5.1077798E-2,3.1077009E-2,9.542293E-2,1.0766877E-1,-4.294336E-2,8.715775E-2,4.863603E-2,1.0532099E-1,3.7206072E-2,1.6556087E-1,-3.1812083E-2,7.819186E-2,6.100768E-2,1.1075918E-1,6.4448856E-2,-4.1479066E-2,1.0796637E-2,1.0026925E-1,6.148153E-2,1.2404007E-1,1.4619136E-1,4.003623E-2,1.2811564E-1,4.3660298E-2,3.123218E-2,1.2678933E-1,1.1615632E-1,7.951683E-2,1.1371865E-1,1.5766663E-2,1.6195431E-2,-3.0243719E-2,-5.102042E-2,7.033073E-2],"split_indices":[1554,2737,2416,265,3632,0,2258,4443,0,3031,0,0,869,972,0,0,0,0,4573,1971,974,0,0,4042,321,2415,0,2183,0,0,0,0,0,0,0],"split_type":[0,0,0,0,0,0,0,0,0,0,0,0,0,0,0,0,0,0,0,0,0,0,0,0,0,0,0,0,0,0,0,0,0,0,0],"sum_hessian":[2.1892538E2,1.8792575E2,3.099963E1,1.8103485E2,6.8909E0,2.5688727E0,2.8430758E1,1.7815436E2,2.8805056E0,3.717879E0,3.1730213E0,1.2011354E0,2.7229622E1,1.7650755E2,1.6467919E0,1.0824239E0,2.6354551E0,1.1689913E0,2.606063E1,1.7255574E2,3.9518185E0,2.4615364E1,1.4452665E0,1.7043167E2,2.1240776E0,2.0421388E0,1.9096797E0,1.6889064E2,1.541021E0,1.0440242E0,1.0800533E0,1.0176334E0,1.0245053E0,1.6788716E2,1.0034865E0],"tree_param":{"num_deleted":"0","num_feature":"5000","num_nodes":"35","size_leaf_vector":"1"}},{"base_weights":[-2.440554E-1,1.4144379E-1,-3.913837E-1,-4.912561E-1,1.1118199E0,-5.32131E-1,8.754696E-1,1.3613124E-1,-3.6787942E-2,-5.484699E-1,1.0541021E-1,1.4588033E-1,-3.5854127E-2,6.0801644E-2,-5.591283E-1,-5.646364E-2,2.0064373E-2],"categories":[],"categories_nodes":[],"categories_segments":[],"categories_sizes":[],"default_left":[0,0,1,1,1,1,0,0,0,0,0,0,0,0,1,0,0],"id":29,"left_children":[1,-1,3,5,7,9,11,-1,-1,13,-1,-1,-1,-1,15,-1,-1],"loss_changes":[5.2113365E1,0E0,2.9758432E1,1.0697655E1,5.0892496E0,5.2032394E0,4.623655E0,0E0,0E0,2.5253334E0,0E0,0E0,0E0,0E0,8.506584E-1,0E0,0E0],"parents":[2147483647,0,0,2,2,3,3,4,4,5,5,6,6,9,9,14,14],"right_children":[2,-1,4,6,8,10,12,-1,-1,14,-1,-1,-1,-1,16,-1,-1],"split_conditions":[3.373297E-1,1.4144379E-1,2.8946532E-2,1.1065713E-1,3.266263E-2,6.7677855E-2,1.4415674E-1,1.3613124E-1,-3.6787942E-2,1.410195E-1,1.0541021E-1,1.4588033E-1,-3.5854127E-2,6.0801644E-2,5.742977E-2,-5.646364E-2,2.0064373E-2],"split_indices":[4839,0,4246,869,2656,2808,866,0,0,3822,0,0,0,0,4293,0,0],"split_type":[0,0,0,0,0,0,0,0,0,0,0,0,0,0,0,0,0],"sum_hessian":[2.1001393E2,1.6432348E1,1.9358159E2,1.8215262E2,1.1428968E1,1.7745605E2,4.696562E0,9.848429E0,1.580539E0,1.7629439E2,1.161678E0,3.0653605E0,1.6312014E0,1.0981057E0,1.7519627E2,1.7419028E2,1.0060006E0],"tree_param":{"num_deleted":"0","num_feature":"5000","num_nodes":"17","size_leaf_vector":"1"}},{"base_weights":[-1.4039059E-1,-2.982771E-1,7.7573603E-1,-4.7487953E-1,4.3985906E-1,-4.6676815E-2,9.8684585E-1,-5.1088685E-1,7.570548E-1,1.0041914E0,-3.06746E-1,1.1230744E0,-3.990733E-2,-5.55051E-1,3.545332E-1,1.2846927E-1,-3.376324E-2,-3.6619797E-2,1.148709E0,-5.318124E-2,1.0706935E-1,-3.4027215E-2,1.2268082E0,-5.6190968E-2,2.0089293E-2,9.3072504E-1,-4.278524E-2,-3.0167803E-2,1.253834E0,9.078244E-3,1.2820625E-1,1.1315298E-1,1.4081167E-2,1.3045639E-1,3.898387E-2],"categories":[],"categories_nodes":[],"categories_segments":[],"categories_sizes":[],"default_left":[1,1,0,1,0,0,1,1,0,0,1,0,0,1,1,0,0,0,0,0,0,0,0,0,0,0,0,0,1,0,0,0,0,0,0],"id":30,"left_children":[1,3,5,7,9,-1,11,13,15,17,19,21,-1,23,25,-1,-1,-1,27,-1,-1,-1,29,-1,-1,31,-1,-1,33,-1,-1,-1,-1,-1,-1],"loss_changes":[3.1751516E1,2.4533764E1,8.9363785E0,7.0874786E0,1.5705765E1,0E0,5.72348E0,5.8291435E0,3.144246E0,4.5889664E0,5.684043E0,4.3190384E0,0E0,8.418579E-1,3.8988886E0,0E0,0E0,0E0,3.3180866E0,0E0,0E0,0E0,1.403801E0,0E0,0E0,5.999594E-1,0E0,0E0,2.8791618E-1,0E0,0E0,0E0,0E0,0E0,0E0],"parents":[2147483647,0,0,1,1,2,2,3,3,4,4,6,6,7,7,8,8,9,9,10,10,11,11,13,13,14,14,18,18,22,22,25,25,28,28],"right_children":[2,4,6,8,10,-1,12,14,16,18,20,22,-1,24,26,-1,-1,-1,28,-1,-1,-1,30,-1,-1,32,-1,-1,34,-1,-1,-1,-1,-1,-1],"split_conditions":[7.710362E-2,5.4159023E-2,5.7482904E-1,8.719628E-2,7.280968E-2,-4.6676815E-2,1.3269792E-1,7.9456344E-2,6.0343705E-2,1.6836149E-1,1.18458845E-1,3.2203203E-1,-3.990733E-2,2.2554238E-1,4.987319E-2,1.2846927E-1,-3.376324E-2,-3.6619797E-2,8.938309E-2,-5.318124E-2,1.0706935E-1,-3.4027215E-2,6.760392E-2,-5.6190968E-2,2.0089293E-2,9.848291E-2,-4.278524E-2,-3.0167803E-2,8.2128614E-2,9.078244E-3,1.2820625E-1,1.1315298E-1,1.4081167E-2,1.3045639E-1,3.898387E-2],"split_indices":[1336,3768,586,2519,2415,0,1148,3716,4738,944,2403,1041,0,1515,4383,0,0,0,3222,0,0,0,3948,0,0,2149,0,0,3769,0,0,0,0,0,0],"split_type":[0,0,0,0,0,0,0,0,0,0,0,0,0,0,0,0,0,0,0,0,0,0,0,0,0,0,0,0,0,0,0,0,0,0,0],"sum_hessian":[2.1691519E2,1.856026E2,3.131259E1,1.5005736E2,3.5545254E1,4.3716803E0,2.694091E1,1.4636465E2,3.6926935E0,2.0047243E1,1.549801E1,2.4702444E1,2.2384665E0,1.3959926E2,6.765402E0,2.3745787E0,1.3181146E0,1.7661153E0,1.8281128E1,1.3849059E1,1.6489507E0,1.4842503E0,2.3218193E1,1.3859843E2,1.0008181E0,3.7869122E0,2.9784899E0,1.109121E0,1.7172007E1,1.1995031E0,2.201869E1,2.674541E0,1.1123712E0,1.5738022E1,1.4339848E0],"tree_param":{"num_deleted":"0","num_feature":"5000","num_nodes":"35","size_leaf_vector":"1"}},{"base_weights":[-2.160003E-1,-2.8559497E-1,1.1194125E0,-3.6774448E-1,8.8280994E-1,-4.769248E-3,1.3480596E-1,4.9999627E-1,-4.0280512E-1,1.1451138E0,-3.8887087E-2,-4.3450233E-2,1.2846256E0,-4.270835E-1,8.5623986E-1,1.3056856E-1,2.6729133E-3,1.5626489E-1,1.8017806E-2,-4.4747573E-1,1.0812874E-1,1.2315061E-1,8.624576E-3,-4.6315527E-1,7.107379E-2,-4.7910696E-1,6.534449E-2,-4.9520306E-2,5.9596516E-2],"categories":[],"categories_nodes":[],"categories_segments":[],"categories_sizes":[],"default_left":[1,1,0,0,1,0,0,0,1,1,0,0,1,1,0,0,0,0,0,1,0,0,0,1,0,1,0,0,0],"id":31,"left_children":[1,3,5,7,9,-1,-1,11,13,15,-1,-1,17,19,21,-1,-1,-1,-1,23,-1,-1,-1,25,-1,27,-1,-1,-1],"loss_changes":[1.9892101E1,1.9613796E1,2.902254E0,5.935238E0,4.946911E0,0E0,0E0,6.2520123E0,5.919859E0,2.0197277E0,0E0,0E0,1.0922141E0,5.98761E0,9.8322415E-1,0E0,0E0,0E0,0E0,3.5481262E0,0E0,0E0,0E0,3.4388351E0,0E0,3.2990875E0,0E0,0E0,0E0],"parents":[2147483647,0,0,1,1,2,2,3,3,4,4,7,7,8,8,9,9,12,12,13,13,14,14,19,19,23,23,25,25],"right_children":[2,4,6,8,10,-1,-1,12,14,16,-1,-1,18,20,22,-1,-1,-1,-1,24,-1,-1,-1,26,-1,28,-1,-1,-1],"split_conditions":[2.9478988E-2,5.8555655E-2,6.757038E-2,1.07977316E-1,2.562248E-2,-4.769248E-3,1.3480596E-1,1.7060436E-1,9.708413E-2,5.701566E-2,-3.8887087E-2,-4.3450233E-2,6.0628712E-2,9.6970856E-2,6.980021E-2,1.3056856E-1,2.6729133E-3,1.5626489E-1,1.8017806E-2,1.2934045E-1,1.0812874E-1,1.2315061E-1,8.624576E-3,5.4977044E-2,7.107379E-2,1.2743874E-1,6.534449E-2,-4.9520306E-2,5.9596516E-2],"split_indices":[3407,451,1902,4278,4250,0,0,4796,3754,944,0,0,3897,103,2149,0,0,0,0,3824,0,0,0,1997,0,236,0,0,0],"split_type":[0,0,0,0,0,0,0,0,0,0,0,0,0,0,0,0,0,0,0,0,0,0,0,0,0,0,0,0,0],"sum_hessian":[2.0959724E2,1.999624E2,9.634848E0,1.8746703E2,1.2495377E1,1.7079928E0,7.9268546E0,6.765367E0,1.8070166E2,1.04412365E1,2.0541394E0,3.2914553E0,3.4739118E0,1.7793137E2,2.7702909E0,8.983901E0,1.457336E0,2.4438505E0,1.0300611E0,1.7625189E2,1.6794778E0,1.4595766E0,1.3107141E0,1.744898E2,1.7620763E0,1.7259505E2,1.8947625E0,1.7058047E2,2.014568E0],"tree_param":{"num_deleted":"0","num_feature":"5000","num_nodes":"29","size_leaf_vector":"1"}},{"base_weights":[-1.8548645E-1,-2.7734536E-1,7.4598795E-1,-3.140407E-1,1.4892304E0,1.0257598E0,-4.432669E-2,-3.6567056E-1,9.1710967E-1,4.882449E-2,1.7799579E-1,-7.772152E-2,1.19863115E-1,-4.0889013E-1,1.1403041E0,-3.309725E-2,1.21220924E-1,-2.935622E-2,1.7012523E-2,6.9808334E-1,-4.5376226E-1,1.3378399E-2,1.3665079E-1,1.241656E0,-3.8617503E-2,-4.8987618E-1,1.3935094E-1,1.9116065E-2,1.4540166E-1,-5.0698185E-1,6.84541E-2,-4.87788E-2,9.9384093E-1,6.804462E-2,-5.190875E-2,-3.6425747E-2,1.8917456E-1],"categories":[],"categories_nodes":[],"categories_segments":[],"categories_sizes":[],"default_left":[1,1,1,1,0,0,0,1,0,0,0,1,0,0,1,0,0,0,0,0,1,0,0,0,0,1,1,0,0,0,0,0,0,0,0,0,0],"id":32,"left_children":[1,3,5,7,9,11,-1,13,15,-1,-1,17,-1,19,21,-1,-1,-1,-1,23,25,-1,-1,27,-1,29,31,-1,-1,33,-1,-1,35,-1,-1,-1,-1],"loss_changes":[1.8010462E1,1.2792477E1,6.7592382E0,1.2227003E1,3.075266E-1,3.076952E0,0E0,1.219935E1,3.2794561E0,0E0,0E0,2.1351147E-1,0E0,9.057747E0,1.0222907E0,0E0,0E0,0E0,0E0,4.752028E0,3.7036896E0,0E0,0E0,8.521466E-1,0E0,3.5654182E0,6.122112E0,0E0,0E0,2.6312752E0,0E0,0E0,6.52041E0,0E0,0E0,0E0,0E0],"parents":[2147483647,0,0,1,1,2,2,3,3,4,4,5,5,7,7,8,8,11,11,13,13,14,14,19,19,20,20,23,23,25,25,26,26,29,29,32,32],"right_children":[2,4,6,8,10,12,-1,14,16,-1,-1,18,-1,20,22,-1,-1,-1,-1,24,26,-1,-1,28,-1,30,32,-1,-1,34,-1,-1,36,-1,-1,-1,-1],"split_conditions":[2.0451865E-1,3.243659E-2,4.788777E-2,1.3716899E-1,4.1442286E-2,1.12476766E-1,-4.432669E-2,8.4824584E-2,7.292933E-2,4.882449E-2,1.7799579E-1,8.221259E-2,1.19863115E-1,6.14822E-2,3.224087E-2,-3.309725E-2,1.21220924E-1,-2.935622E-2,1.7012523E-2,4.735086E-2,7.86045E-2,1.3378399E-2,1.3665079E-1,3.5216536E-2,-3.8617503E-2,2.0303203E-1,6.8141736E-2,1.9116065E-2,1.4540166E-1,1.6151625E-1,6.84541E-2,-4.87788E-2,9.681717E-2,6.804462E-2,-5.190875E-2,-3.6425747E-2,1.8917456E-1],"split_indices":[1041,349,1216,464,2201,1986,0,772,3947,0,0,2952,0,2112,2952,0,0,0,0,3312,748,0,0,2715,0,961,3438,0,0,721,0,0,2952,0,0,0,0],"split_type":[0,0,0,0,0,0,0,0,0,0,0,0,0,0,0,0,0,0,0,0,0,0,0,0,0,0,0,0,0,0,0,0,0,0,0,0,0],"sum_hessian":[2.0707251E2,1.8912398E2,1.7948526E1,1.8608095E2,3.0430422E0,1.4641577E1,3.30695E0,1.7926617E2,6.814775E0,1.2879549E0,1.7550871E0,2.0576289E0,1.2583948E1,1.7497314E2,4.2930193E0,1.2799295E0,5.5348454E0,1.0012373E0,1.0563915E0,6.24928E0,1.6872386E2,1.0797915E0,3.213228E0,4.0658007E0,2.183479E0,1.5920418E2,9.519683E0,1.0032319E0,3.0625691E0,1.5747879E2,1.7254016E0,5.737723E0,3.78196E0,1.0321035E0,1.5644669E2,1.7417914E0,2.0401685E0],"tree_param":{"num_deleted":"0","num_feature":"5000","num_nodes":"37","size_leaf_vector":"1"}},{"base_weights":[5.008859E-1,6.4275426E-1,-2.59752E-1,1.0005394E0,4.7558323E-1,9.5974065E-2,-3.7394348E-1,1.0518034E0,-1.9879487E-1,1.0469648E0,3.4322706E-1,8.368399E-2,-4.436015E-1,1.0698695E0,-5.4327263E-3,3.86967E-2,-5.0743468E-2,1.06457725E-1,3.2009237E-2,1.85202E-1,8.5409856E-1,-5.219311E-1,5.2288777E-1,1.0855765E0,-3.091558E-3,6.359994E-2,7.941857E-1,9.892975E-1,-4.9517423E-2,-5.738587E-1,4.800388E-2,9.662198E-2,-3.5141386E-2,1.105364E0,1.23787215E-2,-5.048076E-1,1.9621241E-1,-4.321651E-2,9.181893E-1,1.0416164E0,7.723889E-3,-5.931148E-2,1.727349E-2,3.5313196E-2,1.11258164E-1,4.564459E-2,-5.840549E-2,-4.7623768E-1,3.1019828E-1,1.0480422E0,-4.3442354E-2,1.0823004E0,-1.8160334E-3,-6.050789E-2,5.041042E-2,4.7132123E-2,-2.3863314E-2,1.1410791E-1,-3.290532E-2,1.1030387E-1,3.3810943E-2],"categories":[],"categories_nodes":[],"categories_segments":[],"categories_sizes":[],"default_left":[1,0,0,1,0,0,0,1,1,1,1,0,1,1,0,0,0,0,0,1,1,1,0,1,0,0,0,1,0,1,0,0,0,0,0,0,0,0,1,1,0,0,0,0,0,0,0,1,1,1,0,1,0,0,0,0,0,0,0,0,0],"id":33,"left_children":[1,3,5,7,9,-1,11,13,15,17,19,-1,21,23,-1,-1,-1,-1,-1,25,27,29,31,33,-1,35,37,39,-1,41,-1,-1,-1,43,-1,45,47,-1,49,51,-1,-1,-1,-1,-1,-1,-1,53,55,57,-1,59,-1,-1,-1,-1,-1,-1,-1,-1,-1],"loss_changes":[4.1828667E1,1.9003265E1,8.909336E0,6.5298004E0,1.6571098E1,0E0,5.1671286E0,2.0314941E0,1.1102802E0,1.920166E-1,1.4636007E1,0E0,4.393034E0,1.7143478E0,0E0,0E0,0E0,0E0,0E0,1.0408654E1,8.336939E0,2.9208727E0,2.1146436E0,1.687706E0,0E0,9.055184E0,3.9585123E0,1.8011742E0,0E0,8.039417E-1,0E0,0E0,0E0,1.1645508E-1,0E0,2.000104E0,7.5873528E0,0E0,4.2474556E0,1.6241226E0,0E0,0E0,0E0,0E0,0E0,0E0,0E0,2.1317315E0,7.504957E0,2.9369087E0,0E0,1.8039322E-1,0E0,0E0,0E0,0E0,0E0,0E0,0E0,0E0,0E0],"parents":[2147483647,0,0,1,1,2,2,3,3,4,4,6,6,7,7,8,8,9,9,10,10,12,12,13,13,19,19,20,20,21,21,22,22,23,23,25,25,26,26,27,27,29,29,33,33,35,35,36,36,38,38,39,39,47,47,48,48,49,49,51,51],"right_children":[2,4,6,8,10,-1,12,14,16,18,20,-1,22,24,-1,-1,-1,-1,-1,26,28,30,32,34,-1,36,38,40,-1,42,-1,-1,-1,44,-1,46,48,-1,50,52,-1,-1,-1,-1,-1,-1,-1,54,56,58,-1,60,-1,-1,-1,-1,-1,-1,-1,-1,-1],"split_conditions":[4.5661543E-2,2.8824687E-1,1.1524621E-1,1.08837575E-1,4.0399665E-1,9.5974065E-2,6.66123E-2,5.5069536E-2,6.5780886E-2,8.430845E-2,9.809197E-2,8.368399E-2,6.1023127E-2,9.2235096E-2,-5.4327263E-3,3.86967E-2,-5.0743468E-2,1.06457725E-1,3.2009237E-2,2.2078853E-2,5.1657733E-2,6.552575E-2,7.329329E-2,3.2864813E-2,-3.091558E-3,5.9119552E-2,1.8557337E-1,4.0327477E-1,-4.9517423E-2,3.6063608E-2,4.800388E-2,9.662198E-2,-3.5141386E-2,2.20407E-2,1.23787215E-2,1.2215223E-1,8.570133E-2,-4.321651E-2,5.4226436E-2,8.797375E-2,7.723889E-3,-5.931148E-2,1.727349E-2,3.5313196E-2,1.11258164E-1,4.564459E-2,-5.840549E-2,7.5919755E-2,5.5710264E-2,1.7032368E-1,-4.3442354E-2,4.848561E-2,-1.8160334E-3,-6.050789E-2,5.041042E-2,4.7132123E-2,-2.3863314E-2,1.1410791E-1,-3.290532E-2,1.1030387E-1,3.3810943E-2],"split_indices":[1041,3933,2581,4042,4262,0,3934,4175,316,2057,374,0,1218,2004,0,0,0,0,0,488,944,63,944,3605,0,2415,3666,894,0,3933,0,0,0,49,0,747,3350,0,2584,4697,0,0,0,0,0,0,0,346,4738,451,0,1400,0,0,0,0,0,0,0,0,0],"split_type":[0,0,0,0,0,0,0,0,0,0,0,0,0,0,0,0,0,0,0,0,0,0,0,0,0,0,0,0,0,0,0,0,0,0,0,0,0,0,0,0,0,0,0,0,0,0,0,0,0,0,0,0,0,0,0,0,0,0,0,0,0],"sum_hessian":[3.8507684E2,3.2467578E2,6.0401062E1,1.0180473E2,2.2287105E2,4.53761E0,5.5863453E1,9.774957E1,4.0551615E0,4.0617046E1,1.82254E2,2.4399037E0,5.342355E1,9.621095E1,1.538615E0,1.3117787E0,2.743383E0,3.9202553E1,1.4144952E0,1.402376E2,4.2016407E1,4.9843895E1,3.579653E0,9.487106E1,1.33989E0,1.17816414E2,2.2421183E1,3.8432236E1,3.5841703E0,4.779421E1,2.0496874E0,2.3054802E0,1.2741728E0,9.281232E1,2.058751E0,2.1756485E1,9.605993E1,1.8307381E0,2.0590445E1,3.6212883E1,2.2193508E0,4.67929E1,1.0013107E0,1.3565596E0,9.145576E1,1.2945149E0,2.046197E1,1.3462283E1,8.259765E1,1.8992325E1,1.59812E0,3.485363E1,1.3592553E0,1.2236846E1,1.2254368E0,6.3961426E1,1.863622E1,1.7950941E1,1.041383E0,3.3439575E1,1.4140524E0],"tree_param":{"num_deleted":"0","num_feature":"5000","num_nodes":"61","size_leaf_vector":"1"}},{"base_weights":[-1.2706597E-1,-2.9148918E-1,1.1412095E0,-3.4066173E-1,8.0678266E-1,6.1217193E-3,1.2004559E0,-3.6845937E-1,1.2161006E-1,-4.0005516E-2,1.305614E-1,1.2398317E-1,5.072258E-2,-3.9702725E-1,8.6985046E-1,-4.1714102E-1,1.1046032E-1,1.3487566E-1,-3.0079499E-2,-4.4652998E-1,4.365537E-1,7.1225464E-1,-4.6667686E-1,-1.7130622E-1,9.999728E-1,1.1805543E-2,9.538912E-2,-4.831044E-2,9.4806656E-2,1.787121E-2,-3.677832E-2,1.307795E-1,1.75936E-2],"categories":[],"categories_nodes":[],"categories_segments":[],"categories_sizes":[],"default_left":[1,1,0,1,0,0,1,1,0,0,0,0,0,1,1,1,0,0,0,0,0,0,1,0,0,0,0,0,0,0,0,0,0],"id":34,"left_children":[1,3,5,7,9,-1,11,13,-1,-1,-1,-1,-1,15,17,19,-1,-1,-1,21,23,25,27,29,31,-1,-1,-1,-1,-1,-1,-1,-1],"loss_changes":[4.556989E1,1.0688616E1,1.5325127E0,8.4655285E0,5.6757746E0,0E0,1.914978E-2,6.811619E0,0E0,0E0,0E0,0E0,0E0,5.8778324E0,2.8922095E0,4.653473E0,0E0,0E0,0E0,4.354603E0,2.3699343E0,3.6695862E-1,4.4077187E0,3.368088E-1,6.5210867E-1,0E0,0E0,0E0,0E0,0E0,0E0,0E0,0E0],"parents":[2147483647,0,0,1,1,2,2,3,3,4,4,6,6,7,7,13,13,14,14,15,15,19,19,20,20,21,21,22,22,23,23,24,24],"right_children":[2,4,6,8,10,-1,12,14,-1,-1,-1,-1,-1,16,18,20,-1,-1,-1,22,24,26,28,30,32,-1,-1,-1,-1,-1,-1,-1,-1],"split_conditions":[5.3502783E-2,1.3296677E-1,1.6344906E-1,1.2425385E-1,1.1214252E0,6.1217193E-3,3.6918286E-2,3.4419794E-2,1.2161006E-1,-4.0005516E-2,1.305614E-1,1.2398317E-1,5.072258E-2,6.9762364E-2,4.0555343E-2,8.177619E-2,1.1046032E-1,1.3487566E-1,-3.0079499E-2,1.3798635E-1,5.2104477E-2,4.3010596E-2,1.4691238E-1,7.889432E-2,9.729307E-2,1.1805543E-2,9.538912E-2,-4.831044E-2,9.4806656E-2,1.787121E-2,-3.677832E-2,1.307795E-1,1.75936E-2],"split_indices":[1554,944,4838,265,961,0,4602,2552,0,0,0,0,0,4147,3728,3897,0,0,0,4111,3947,306,3299,2776,4383,0,0,0,0,0,0,0,0],"split_type":[0,0,0,0,0,0,0,0,0,0,0,0,0,0,0,0,0,0,0,0,0,0,0,0,0,0,0,0,0,0,0,0,0],"sum_hessian":[2.1592987E2,1.9183054E2,2.4099342E1,1.842701E2,7.5604396E0,1.3590338E0,2.2740309E1,1.817874E2,2.4826927E0,2.2689981E0,5.2914414E0,2.0771969E1,1.9683405E0,1.7835219E2,3.4352136E0,1.7670746E2,1.6447219E0,2.3299096E0,1.105304E0,1.7128772E2,5.419742E0,2.3400874E0,1.6894763E2,2.9418263E0,2.4779158E0,1.1068473E0,1.2332401E0,1.6765935E2,1.2882805E0,1.0901575E0,1.8516687E0,1.3766165E0,1.1012993E0],"tree_param":{"num_deleted":"0","num_feature":"5000","num_nodes":"33","size_leaf_vector":"1"}},{"base_weights":[-2.2146621E-1,-3.6887175E-1,1.2726559E-1,-4.6507865E-1,9.908072E-1,-4.9968868E-1,6.915615E-1,1.1828326E0,-3.42066E-2,-5.1570016E-1,1.0617425E-1,1.2794092E-1,-3.6970105E-2,1.2820219E-1,1.1993657E-2,-5.3214824E-1,1.0061812E-1,-5.433245E-1,6.876449E-2,-5.544165E-1,6.2003117E-2,-5.601528E-2,1.9821709E-2],"categories":[],"categories_nodes":[],"categories_segments":[],"categories_sizes":[],"default_left":[1,1,0,1,1,1,0,1,0,1,0,0,0,0,0,1,0,1,0,1,0,0,0],"id":35,"left_children":[1,3,-1,5,7,9,11,13,-1,15,-1,-1,-1,-1,-1,17,-1,19,-1,21,-1,-1,-1],"loss_changes":[4.705176E1,2.5744886E1,0E0,7.5990677E0,3.7554903E0,4.960491E0,4.0189238E0,1.0763531E0,0E0,4.9258766E0,0E0,0E0,0E0,0E0,0E0,2.7480507E0,0E0,2.578064E0,0E0,8.537903E-1,0E0,0E0,0E0],"parents":[2147483647,0,0,1,1,3,3,4,4,5,5,6,6,7,7,9,9,15,15,17,17,19,19],"right_children":[2,4,-1,6,8,10,12,14,-1,16,-1,-1,-1,-1,-1,18,-1,20,-1,22,-1,-1,-1],"split_conditions":[1.6638376E-2,2.8946532E-2,1.2726559E-1,1.1065713E-1,6.515747E-2,7.6897755E-2,1.4415674E-1,3.6390904E-2,-3.42066E-2,7.059162E-2,1.0617425E-1,1.2794092E-1,-3.6970105E-2,1.2820219E-1,1.1993657E-2,8.174368E-2,1.0061812E-1,6.571652E-2,6.876449E-2,1.0805735E-1,6.2003117E-2,-5.601528E-2,1.9821709E-2],"split_indices":[4839,4246,0,869,3439,2947,866,2534,0,4050,0,0,0,0,0,2567,0,3639,0,3456,0,0,0],"split_type":[0,0,0,0,0,0,0,0,0,0,0,0,0,0,0,0,0,0,0,0,0,0,0],"sum_hessian":[2.1050528E2,1.9228786E2,1.8217417E1,1.801957E2,1.2092172E1,1.7551186E2,4.68384E0,1.0667838E1,1.4243335E0,1.7439328E2,1.1185676E0,2.8819401E0,1.8018997E0,9.568727E0,1.0991112E0,1.7317203E2,1.2212579E0,1.7214929E2,1.0227253E0,1.7104193E2,1.1073632E0,1.7000198E2,1.0399514E0],"tree_param":{"num_deleted":"0","num_feature":"5000","num_nodes":"23","size_leaf_vector":"1"}},{"base_weights":[-1.3815904E-1,-3.1084454E-1,7.284344E-1,-4.8573342E-1,4.2765898E-1,-4.4956867E-2,8.8383156E-1,-5.238415E-1,6.651462E-1,8.6184704E-1,-3.720665E-1,9.962733E-1,-3.9928637E-2,-5.4371804E-1,4.4722393E-1,1.091369E-1,-3.287733E-2,-3.747536E-2,9.9604243E-1,-5.1527895E-2,6.454119E-2,-3.331387E-2,1.0769721E0,-5.5725645E-2,-3.7355952E-2,9.116207E-2,-2.8975863E-2,-3.0174702E-2,1.0854012E0,-3.1344038E-2,1.1498356E0,5.510771E-2,-4.005146E-2,1.1508362E0,6.8938727E-3,1.3024968E-2,1.18474185E-1,3.519436E-2,1.1991773E-1],"categories":[],"categories_nodes":[],"categories_segments":[],"categories_sizes":[],"default_left":[1,1,0,1,0,0,1,1,0,0,1,0,0,1,0,0,0,0,0,0,0,0,0,0,0,0,0,0,1,0,0,0,0,0,0,0,0,0,0],"id":36,"left_children":[1,3,5,7,9,-1,11,13,15,17,19,21,-1,23,25,-1,-1,-1,27,-1,-1,-1,29,-1,31,-1,-1,-1,33,-1,35,-1,-1,37,-1,-1,-1,-1,-1],"loss_changes":[3.1541666E1,2.2834547E1,6.8170853E0,6.5812454E0,1.2152811E1,0E0,4.9164467E0,2.90905E0,2.4750454E0,4.088257E0,2.1815493E0,3.478777E0,0E0,9.1013336E-1,1.4001195E0,0E0,0E0,0E0,2.7012272E0,0E0,0E0,0E0,3.1620445E0,0E0,1.2054452E0,0E0,0E0,0E0,1.2088394E0,0E0,7.8850937E-1,0E0,0E0,2.7821732E-1,0E0,0E0,0E0,0E0,0E0],"parents":[2147483647,0,0,1,1,2,2,3,3,4,4,6,6,7,7,8,8,9,9,10,10,11,11,13,13,14,14,18,18,22,22,24,24,28,28,30,30,33,33],"right_children":[2,4,6,8,10,-1,12,14,16,18,20,22,-1,24,26,-1,-1,-1,28,-1,-1,-1,30,-1,32,-1,-1,-1,34,-1,36,-1,-1,38,-1,-1,-1,-1,-1],"split_conditions":[7.710362E-2,5.4159023E-2,1.2089101E-1,8.719628E-2,7.477347E-2,-4.4956867E-2,1.349243E-1,1.1761951E-1,7.380449E-2,1.6836149E-1,9.4751015E-2,2.626506E-1,-3.9928637E-2,8.210215E-2,1.5878814E-1,1.091369E-1,-3.287733E-2,-3.747536E-2,1.5221423E-1,-5.1527895E-2,6.454119E-2,-3.331387E-2,2.825595E-1,-5.5725645E-2,1.09920196E-1,9.116207E-2,-2.8975863E-2,-3.0174702E-2,7.504827E-2,-3.1344038E-2,3.7676312E-2,5.510771E-2,-4.005146E-2,4.09441E-2,6.8938727E-3,1.3024968E-2,1.18474185E-1,3.519436E-2,1.1991773E-1],"split_indices":[1336,3768,866,2519,2415,0,1148,2234,1902,944,3414,1041,0,4550,1691,0,0,0,1955,0,0,0,374,0,48,0,0,0,2673,0,2952,0,0,3824,0,0,0,0,0],"split_type":[0,0,0,0,0,0,0,0,0,0,0,0,0,0,0,0,0,0,0,0,0,0,0,0,0,0,0,0,0,0,0,0,0,0,0,0,0,0,0],"sum_hessian":[2.0825914E2,1.7418977E2,3.4069378E1,1.4111407E2,3.307569E1,3.7498972E0,3.031948E1,1.3711862E2,3.9954596E0,2.1386711E1,1.1688981E1,2.808215E1,2.2373314E0,1.3479951E2,2.3190994E0,2.7276952E0,1.2677644E0,1.9181846E0,1.9468527E1,1.0679403E1,1.009578E0,1.4280854E0,2.6654064E1,1.3119139E2,3.6081235E0,1.27728E0,1.0418195E0,1.1010326E0,1.8367495E1,1.1628215E0,2.5491241E1,1.1795005E0,2.428623E0,1.7132393E1,1.2351007E0,1.0004436E0,2.4490799E1,1.4499917E0,1.5682402E1],"tree_param":{"num_deleted":"0","num_feature":"5000","num_nodes":"39","size_leaf_vector":"1"}},{"base_weights":[-1.656521E-1,-2.3834972E-1,9.6826637E-1,-3.1360066E-1,8.1583303E-1,1.0883939E0,1.0198955E-3,-3.807607E-1,3.218209E-1,1.0183798E0,-3.5597246E-2,1.1830039E-1,1.0843618E-2,-4.0789285E-1,7.79309E-1,-2.3197098E-1,9.1031975E-1,1.16061024E-1,3.4118393E-3,-4.3483943E-1,7.1242154E-1,1.6487584E-1,-3.4791216E-2,-5.008727E-2,8.75947E-2,-3.1200666E-2,1.1486781E0,-4.5268184E-1,1.0426229E-1,1.16367936E-1,3.2463242E-4,1.4208468E0,-2.8994767E-2,-4.7545737E-1,5.520062E-1,4.714675E-2,1.5848027E-1,-4.878033E-2,6.886425E-2,7.77325E-2,7.236215E-3],"categories":[],"categories_nodes":[],"categories_segments":[],"categories_sizes":[],"default_left":[1,1,1,1,1,1,0,1,0,1,0,0,0,1,0,1,0,0,0,1,0,0,0,0,0,0,1,1,0,0,0,0,0,1,0,0,0,0,0,0,0],"id":37,"left_children":[1,3,5,7,9,11,-1,13,15,17,-1,-1,-1,19,21,23,25,-1,-1,27,29,-1,-1,-1,-1,-1,31,33,-1,-1,-1,35,-1,37,39,-1,-1,-1,-1,-1,-1],"loss_changes":[1.7067026E1,1.5545427E1,1.4278622E0,7.8304367E0,3.4763126E0,9.008808E-1,0E0,5.473871E0,6.0146947E0,1.5625801E0,0E0,0E0,0E0,5.1618347E0,4.5794306E0,3.4093497E0,2.9328475E0,0E0,0E0,4.625765E0,1.3256125E0,0E0,0E0,0E0,0E0,0E0,3.3908443E0,3.8409538E0,0E0,0E0,0E0,2.750206E-1,0E0,2.541397E0,3.6840677E-1,0E0,0E0,0E0,0E0,0E0,0E0],"parents":[2147483647,0,0,1,1,2,2,3,3,4,4,5,5,7,7,8,8,9,9,13,13,14,14,15,15,16,16,19,19,20,20,26,26,27,27,31,31,33,33,34,34],"right_children":[2,4,6,8,10,12,-1,14,16,18,-1,-1,-1,20,22,24,26,-1,-1,28,30,-1,-1,-1,-1,-1,32,34,-1,-1,-1,36,-1,38,40,-1,-1,-1,-1,-1,-1],"split_conditions":[2.9478988E-2,5.8555655E-2,3.986047E-2,4.343562E-2,2.562248E-2,4.5917656E-2,1.0198955E-3,5.058659E-2,1.1796581E-1,1.4032784E-1,-3.5597246E-2,1.1830039E-1,1.0843618E-2,9.708413E-2,5.2409165E-2,8.546631E-2,9.2799395E-2,1.16061024E-1,3.4118393E-3,9.900987E-2,6.924323E-2,1.6487584E-1,-3.4791216E-2,-5.008727E-2,8.75947E-2,-3.1200666E-2,9.49978E-2,1.2697656E-1,1.0426229E-1,1.16367936E-1,3.2463242E-4,5.3008743E-2,-2.8994767E-2,1.14882745E-1,1.4071818E-1,4.714675E-2,1.5848027E-1,-4.878033E-2,6.886425E-2,7.77325E-2,7.236215E-3],"split_indices":[3407,451,215,4273,4250,747,0,354,4383,59,0,0,0,3754,4602,2694,2180,0,0,2150,3768,0,0,0,0,0,325,1998,0,0,0,3632,0,4373,48,0,0,0,0,0,0],"split_type":[0,0,0,0,0,0,0,0,0,0,0,0,0,0,0,0,0,0,0,0,0,0,0,0,0,0,0,0,0,0,0,0,0,0,0,0,0,0,0,0,0],"sum_hessian":[2.0324107E2,1.9173817E2,1.15028925E1,1.7961891E2,1.2119257E1,1.0100417E1,1.4024754E0,1.6281154E2,1.6807373E1,1.0444801E1,1.674455E0,9.022173E0,1.0782435E0,1.5972424E2,3.0873015E0,8.971137E0,7.836235E0,8.969499E0,1.475303E0,1.5657018E2,3.1540732E0,1.481734E0,1.6055676E0,7.6599207E0,1.3112166E0,1.2283168E0,6.6079183E0,1.5538725E2,1.1829098E0,1.5358803E0,1.6181929E0,5.567063E0,1.0408556E0,1.5245792E2,2.9293466E0,1.3905745E0,4.1764884E0,1.5143285E2,1.0250672E0,1.5708097E0,1.3585368E0],"tree_param":{"num_deleted":"0","num_feature":"5000","num_nodes":"41","size_leaf_vector":"1"}},{"base_weights":[-2.1030167E-1,-3.09963E-1,6.4806384E-1,7.954436E-1,-3.587606E-1,-2.1913356E-1,1.002013E0,1.1437821E0,-3.497706E-2,-3.9910805E-1,6.7012244E-1,-4.761565E-2,6.421345E-2,1.0728068E0,8.3078155E-3,1.1801235E-2,1.3501337E-1,-4.2480046E-1,1.0653483E-1,1.0191188E-1,-3.549907E-2,1.1495101E-1,9.075733E-3,-4.465463E-1,1.04238145E-1,-4.6337473E-1,9.098823E-2,-4.7482488E-1,6.729903E-2,-4.8636783E-2,6.645877E-2],"categories":[],"categories_nodes":[],"categories_segments":[],"categories_sizes":[],"default_left":[1,0,0,1,1,1,1,1,0,1,1,0,0,1,0,0,0,1,0,0,0,0,0,1,0,1,0,1,0,0,0],"id":38,"left_children":[1,3,5,7,9,11,13,15,-1,17,19,-1,-1,21,-1,-1,-1,23,-1,-1,-1,-1,-1,25,-1,27,-1,29,-1,-1,-1],"loss_changes":[1.7396427E1,1.0036631E1,6.737258E0,3.5729647E0,7.4832916E0,1.8498394E0,9.035387E-1,1.181138E0,0E0,6.769472E0,2.8419352E0,0E0,0E0,9.565315E-1,0E0,0E0,0E0,5.7524586E0,0E0,0E0,0E0,0E0,0E0,4.1649475E0,0E0,2.4357834E0,0E0,2.4487038E0,0E0,0E0,0E0],"parents":[2147483647,0,0,1,1,2,2,3,3,4,4,5,5,6,6,7,7,9,9,10,10,13,13,17,17,23,23,25,25,27,27],"right_children":[2,4,6,8,10,12,14,16,-1,18,20,-1,-1,22,-1,-1,-1,24,-1,-1,-1,-1,-1,26,-1,28,-1,30,-1,-1,-1],"split_conditions":[2.0451865E-1,8.1273556E-2,2.8531295E-1,3.0469233E-2,1.3716899E-1,3.5627298E-2,1.0793633E-1,2.2327108E-2,-3.497706E-2,1.1340929E-1,3.475948E-2,-4.761565E-2,6.421345E-2,6.756106E-2,8.3078155E-3,1.1801235E-2,1.3501337E-1,1.13636725E-1,1.0653483E-1,1.0191188E-1,-3.549907E-2,1.1495101E-1,9.075733E-3,1.5977722E-1,1.04238145E-1,1.3936737E-1,9.098823E-2,7.477803E-2,6.729903E-2,-4.8636783E-2,6.645877E-2],"split_indices":[1041,3071,4560,3933,464,2702,1902,186,0,1551,1902,0,0,4273,0,0,0,437,0,0,0,0,0,756,0,3815,0,2284,0,0,0],"split_type":[0,0,0,0,0,0,0,0,0,0,0,0,0,0,0,0,0,0,0,0,0,0,0,0,0,0,0,0,0,0,0],"sum_hessian":[2.0000981E2,1.7977568E2,2.0234129E1,6.9536896E0,1.7282199E2,5.97526E0,1.4258868E1,5.3328524E0,1.6208371E0,1.6688954E2,5.9324474E0,4.9463077E0,1.0289519E0,1.3083484E1,1.1753848E0,1.1563845E0,4.176468E0,1.6470981E2,2.17974E0,4.4300866E0,1.5023608E0,1.197746E1,1.1060238E0,1.629897E2,1.7201087E0,1.6164267E2,1.3470243E0,1.6060654E2,1.0361354E0,1.5956322E2,1.0433283E0],"tree_param":{"num_deleted":"0","num_feature":"5000","num_nodes":"31","size_leaf_vector":"1"}},{"base_weights":[4.565197E-1,5.973645E-1,-3.0792207E-1,9.1514945E-1,4.384719E-1,8.6095326E-2,-4.179105E-1,9.615146E-1,-3.1678367E-1,9.629922E-1,3.0842894E-1,-4.661414E-1,7.6624714E-2,-3.8478233E-2,9.821526E-1,6.969496E-3,-4.725429E-2,9.804631E-2,2.8702319E-2,4.6908146E-1,-9.177798E-2,7.0118E-2,-5.1516336E-1,9.97223E-1,-4.4602435E-3,5.4603904E-1,-3.7066013E-1,-2.498868E-1,5.685796E-1,2.803486E-1,-5.6903416E-1,1.0107057E0,-3.8581955E-5,6.0064286E-1,-3.5482073E-1,-5.3585853E-2,4.9870804E-2,-3.5858208E-1,5.915976E-1,9.4534874E-1,-4.622126E-2,8.0504045E-2,-3.5329636E-2,1.306309E-2,-5.873261E-2,1.0229808E-1,2.9356494E-3,6.434992E-1,-5.388319E-2,3.1311575E-2,-5.899858E-2,-4.299672E-1,8.257133E-2,8.787631E-2,-3.8331542E-3,6.6663967E-3,1.098693E-1,7.1287476E-2,-1.6878039E-2,-5.2094925E-2,4.436662E-2],"categories":[],